10364 20
of -0.670977 -0.739352 0.850237 0.067186 -1.041790 -0.750679 -0.123040 0.038683 -0.111722 -1.057506 -0.609465 0.047544 0.890138 -0.328880 0.208511 0.477612 -0.588075 0.173797 0.371140 -0.336990
the -0.477023 -1.491885 0.741393 -0.444260 -0.536185 -0.759624 0.350028 0.400268 0.329906 -0.424350 0.066045 -0.212863 -0.751056 0.798039 0.165707 0.073550 0.146730 1.244421 0.410569 0.524154
Company -0.156312 -0.379110 -0.123281 -0.521491 1.170377 -0.581945 0.278416 -1.570395 1.050426 -0.535465 0.505806 0.167262 0.859865 0.449789 0.760062 0.343799 -0.432789 -1.773752 0.297020 1.458851
for -1.515883 1.372989 -0.205839 0.290997 0.664320 1.905619 -0.006603 -0.831191 0.194593 -0.761234 -0.565423 0.226758 0.979245 0.540912 -0.833740 1.748519 1.887778 0.461570 0.756882 -1.692793
Number: -0.210857 -0.216553 -0.182360 -0.732799 0.879602 -0.247656 0.448660 -2.001392 1.073629 -0.730631 0.465785 0.536834 1.360492 1.340907 0.160395 0.028983 -0.248019 -0.788563 0.870092 1.378649
to -0.974354 -0.583676 0.506467 0.553127 -0.390926 -1.531299 0.498335 -0.018219 -0.782372 -0.091461 -0.658115 -0.671848 0.744381 -0.214044 -0.927579 1.322346 1.860597 1.870672 0.785714 -0.953884
Electronically -1.803561 0.862049 -1.876419 -0.966156 0.939630 1.398637 1.209559 -1.685509 -0.833270 -1.930544 -0.124133 2.514912 0.572492 1.315439 -1.521649 -1.101423 0.158733 1.734826 0.529647 2.613339
in 0.148595 1.331918 0.671247 -0.545965 -1.282811 0.698120 -0.281929 0.431750 -1.639659 1.597411 1.338035 -0.701403 0.878736 -1.876705 0.297051 1.216058 1.638492 1.547425 0.936034 1.264917
Statement 2.275944 0.129826 -0.887941 -2.580989 -0.304450 0.937162 0.478776 -1.434278 -0.762575 -0.142303 1.220999 1.485549 -1.619476 0.488760 1.017299 1.303666 2.958023 0.683537 1.103232 1.321262
filed -1.024374 0.490209 0.267980 0.532640 1.948095 -0.296094 1.909932 -2.397425 1.386716 0.488376 -0.395747 0.403248 1.510234 -0.252516 -0.153817 0.104287 -1.497079 0.104107 1.348650 0.859516
document -0.395083 2.048082 2.357458 -0.908489 1.861637 1.344008 1.034353 -2.433302 0.219440 0.535614 0.836770 3.247262 1.644088 0.960712 -1.539286 -1.207379 -1.237962 2.255873 3.018566 1.843841
or 1.298722 -1.157714 1.906316 1.123875 -0.428207 -3.406770 0.926574 2.941617 -1.623452 -0.549849 0.492665 -0.673641 0.551481 0.598419 0.368312 0.214436 0.320302 -1.517337 1.477165 0.315607
Name: 0.818684 2.791574 2.077093 3.098811 -0.828661 0.479890 -1.076892 -1.767439 -0.373556 0.428933 0.270800 -2.950177 -0.520103 -0.156777 0.228093 3.853025 -0.145360 -0.009335 -1.312342 -1.365325
shares -0.487598 -1.742571 0.232159 0.475764 1.422881 -1.559641 0.372853 -1.499977 -0.488718 -0.028621 -1.733309 -1.745748 1.031871 -1.018734 -1.955965 -2.421229 0.788681 0.768029 1.824564 -0.597992
this 0.010572 -0.440294 -0.694765 0.150222 -0.893518 -0.479596 1.656846 0.033987 -0.041923 0.520411 -0.646431 0.822393 -1.435268 1.068661 0.345818 0.304053 -0.008488 0.680322 0.438073 -0.096638
as -0.719026 1.800877 -0.922387 -3.527708 0.751069 -2.745354 2.698787 -1.652768 -0.045147 1.611401 2.222287 -1.147696 -1.648940 -3.246765 -0.132388 0.865848 2.330359 0.776179 2.512799 0.616594
at -2.447506 0.834561 0.088563 1.214911 -0.174006 -2.196528 -0.644288 -0.218075 -0.618032 1.194289 -1.337853 0.108851 -0.966686 -1.253951 -1.049805 1.164577 -1.661566 -0.489471 -0.243588 0.337253
delivered -3.799763 -0.297987 -0.040404 -0.274700 0.898352 -0.753285 0.278393 0.367480 2.211204 -0.028557 -3.155039 0.069596 -0.961381 2.718598 0.403850 0.334133 4.633050 2.165851 3.070735 0.858222
Confirmation -0.209318 0.161427 0.702087 3.023965 -0.012945 1.186281 1.933686 -0.690626 1.446923 -0.763068 -1.736864 1.130922 1.140229 -1.920594 2.401096 0.561345 -3.293332 -0.523125 -1.089738 1.834690
and -0.379797 -0.274182 2.369775 2.391463 -0.765472 0.347148 2.882234 -1.871567 -1.507254 -0.612734 -2.867933 1.127245 0.851126 -0.026030 0.428786 4.041773 0.750405 1.731968 0.631662 -1.826113
details -0.461945 0.198327 0.711152 0.889895 1.772999 1.119165 1.422291 -1.035378 -0.174113 -0.098091 -0.426655 3.637618 -2.212584 -0.203671 0.411342 3.040118 0.304967 0.336064 -2.341710 -1.183755
confirmation -2.013595 1.198004 3.019581 2.207347 -0.674244 1.522528 3.256443 2.317754 2.374868 -0.634516 -0.881080 -2.171954 -2.014167 -1.923203 2.485528 -0.547870 -1.981945 -1.991588 -0.186705 1.468941
that -1.957072 -0.655855 -2.761543 0.642192 -0.424250 -0.830244 -1.608789 -0.103696 -1.290871 -1.729607 -3.770679 -0.447517 0.147549 -2.018223 -1.606099 -1.411821 0.631909 1.913163 1.922058 0.529617
Date 1.331406 2.803296 0.354926 -0.434453 0.227750 -2.459715 0.677001 -1.335457 1.232679 2.073897 1.019470 -2.090677 2.178664 -0.840020 0.797677 0.610549 0.414346 -1.473926 0.984611 -0.080930
by -0.958529 -1.690317 -0.868714 0.587436 -0.551124 -4.275252 -0.537839 0.634276 -3.917480 1.164459 0.516354 3.116388 -1.309866 -1.847654 -1.311072 3.258369 0.630226 -0.889074 -1.412967 1.909791
company -1.159888 1.435522 0.925909 -0.293907 0.553024 1.338254 -0.458395 0.683269 2.002503 -0.061234 1.498570 2.114740 -0.082667 0.589672 -0.818087 1.203126 0.466355 0.051054 -1.877028 -2.208762
be 0.379390 -1.838440 0.221372 0.076566 1.034665 -0.704194 0.471770 1.077331 0.974450 2.558899 0.777531 1.314153 0.292843 -2.366604 0.353715 -0.522464 1.086854 2.405594 -0.672001 2.427603
Manager, 2.998890 3.133984 0.294640 1.926924 -3.064555 -1.771545 5.394888 -0.255757 1.735851 -1.873825 3.293967 -2.736877 3.974628 -3.330792 0.271985 -2.724222 3.536844 1.092735 3.716847 4.711031
1 -0.269255 -0.402890 -0.052212 0.632933 -0.300461 0.114626 -0.256671 -1.923410 0.539996 0.289967 -0.345831 -1.031260 -1.227014 -0.215040 -0.202256 0.356483 0.472037 0.422091 1.205698 -0.676901
on -3.733057 -0.294156 -2.100423 1.210137 1.006406 -3.495386 0.314299 -1.502819 -1.219939 -2.019751 -1.553069 -2.259853 0.836726 -2.383443 0.478257 1.902959 0.397909 -1.104414 -0.365332 -0.758781
date 0.234655 2.862463 0.223979 -0.688694 -0.822581 -0.266899 -0.414905 -1.530871 1.233386 1.185851 0.428508 -1.415801 0.028314 0.193826 -1.096020 -2.353690 1.463826 1.919606 -0.445489 -0.486782
Total -1.487860 0.300667 2.681786 1.610351 3.637654 -1.295553 -1.273460 -4.589981 -1.018302 -0.305467 3.702386 1.944191 0.209848 0.780683 -1.576705 2.684238 -1.019428 -0.467974 -3.383976 -0.660845
Page: -1.944892 3.817174 -1.019404 -2.552165 4.516738 -2.333569 1.672858 -2.051166 3.188276 -3.714889 0.480841 3.318549 4.704038 -0.631777 -2.520591 1.841542 -1.677980 -0.639362 1.955662 0.272371
a -0.429879 -1.528865 -1.608497 -1.240302 -0.145192 0.134526 1.226652 0.981020 1.246163 -1.199862 -0.347676 0.103642 -1.611924 3.005876 0.027083 0.387262 0.640078 -0.276113 1.128346 1.484535
I -0.509591 -0.603264 -0.614193 -0.854111 1.673458 -1.136063 -2.061276 -2.946360 -0.374822 -1.527518 -0.965751 -2.407408 1.685032 -0.543170 0.368580 0.007218 0.458964 -0.572502 0.890982 2.338250
form -0.648412 0.360152 2.437024 -1.586346 0.640508 -2.370503 -3.698835 -1.557500 -0.457325 1.274414 0.151900 1.792367 2.023058 -1.398309 1.188070 -2.617399 0.973010 -0.853627 0.711945 0.414587
Companies 0.009095 3.072407 1.806182 0.481163 0.105567 0.147217 -0.792631 -1.729782 0.348888 -0.029817 -0.601542 1.922100 -1.596590 1.889394 3.211930 0.799192 0.733258 -0.643716 -0.251850 -1.776207
is -1.731646 -1.675879 2.089144 1.725115 1.311321 -2.375618 -1.736317 -2.284804 0.605053 3.621824 -3.137560 -2.182806 -1.762532 1.483121 2.400273 3.788747 -1.247299 3.258355 1.282225 2.752726
ORDINARY 1.572256 6.549101 -4.186507 0.289807 -2.276293 0.687938 -4.026968 -2.445666 2.095036 -1.013135 -1.581536 1.374418 -3.042040 2.027108 -6.059927 0.869596 -3.289444 4.563696 -1.595413 2.728666
Person 0.005959 1.425650 -1.080013 3.534475 3.484694 -0.322467 1.369857 2.401958 3.013386 -3.821672 4.571558 2.506587 1.117379 -3.803799 -1.447726 0.582877 -1.487306 3.607196 -4.814647 -1.595572
The 1.452422 -1.811083 -3.600297 0.138971 -0.036560 -0.582602 4.113589 0.117523 -0.688723 -1.335550 -2.097664 1.140602 0.767099 2.106137 -1.532309 1.511043 2.059776 2.686949 0.863537 0.352654
House -1.622932 0.776127 -0.204941 2.878094 -0.675067 -5.412920 1.436218 3.856063 -1.644891 -2.049852 2.098713 -1.942638 1.573083 3.511899 0.863076 0.904327 -2.706138 -1.469733 0.531227 1.718578
statement -2.404015 2.256802 2.897607 0.389644 1.377796 -0.165576 0.905179 -5.848877 0.830019 -0.246623 3.795062 2.762243 0.068799 1.842911 -1.563786 1.863625 1.225524 -0.627278 -1.898380 -4.454065
person -1.154401 -2.273907 2.415200 -2.242205 0.832993 -3.976528 -2.638186 0.253553 3.036981 -1.469461 3.811208 -1.280112 1.877706 -3.408698 -0.731364 -3.678069 -1.703583 -0.508103 -3.097901 3.015922
nominal -2.430692 -1.709190 0.098075 3.467072 -0.131372 0.379186 -1.562742 -0.508282 1.199641 -0.603947 -1.418149 -1.181731 0.967388 -4.153565 -4.531878 2.332118 -0.257311 1.353839 0.757768 2.741604
Number 0.754924 0.363385 -0.385078 0.697407 -1.633216 -0.541302 2.017609 -0.107940 2.733903 -1.894362 1.264707 -1.352874 -2.362866 2.144980 0.015966 3.432256 -0.982752 -1.013448 -0.091562 0.421621
Capital -1.681437 -1.299451 6.609202 2.778474 1.503419 4.017077 1.279775 -4.719762 1.538955 -0.826329 -5.318967 -1.118911 0.239059 4.738309 -1.168030 2.147506 -0.450616 -4.916540 -2.126566 2.960186
This -1.909480 0.067900 -3.266501 -0.347022 -1.271525 -0.542464 3.918542 -2.259176 0.925419 -1.195163 -1.959057 3.261019 -1.472363 -2.696824 2.455008 1.587551 2.921625 2.437083 2.445982 -1.416471
GBP 0.111573 -0.262675 7.511538 -0.592057 -0.038095 -1.553406 -1.027207 -3.022231 -3.640578 1.268382 3.414350 -2.374346 0.478811 -1.038854 2.266330 2.061709 2.493218 -1.864624 1.452059 3.032490
shareholders -0.762797 -3.435577 0.526689 -0.551975 0.000514 -5.324467 0.433564 0.635757 3.364113 -0.270424 -0.259278 -1.741356 0.673488 3.893414 0.308865 -3.817858 -1.565579 -1.737380 0.399258 2.862218
2 0.195654 -1.380332 0.478295 -1.000769 -1.105569 -0.094632 -0.047881 -3.671147 0.713865 -0.538698 -0.041818 -0.191003 -0.367985 -1.393029 0.228800 -0.061143 0.723526 0.466264 0.777516 -0.172702
has -1.025237 1.852265 -1.416870 -0.001261 -1.350138 -3.680083 -0.292688 -1.450958 -3.932526 2.456539 -1.984713 -5.185162 2.608654 -3.906062 2.303899 -1.280773 1.652485 0.093283 0.239952 5.994862
information -2.101639 0.462591 2.940662 -0.813300 0.751993 0.070765 -5.377541 -0.451870 3.720724 0.969215 -3.116078 -3.195123 -0.589519 2.205020 0.214465 1.880985 -3.286434 1.406059 -0.208455 4.713524
Class 1.285294 2.525616 1.010630 -3.236901 1.282275 0.159517 -4.082925 -1.749717 2.634418 3.045306 0.776806 0.636805 0.803689 -4.641698 -2.450088 -3.344667 -2.926411 -0.903087 1.704090 5.933535
aggregate 0.196449 -3.394212 1.675188 -4.550730 4.419650 -5.029999 -2.664157 -5.671323 2.941719 -2.945776 3.414144 -0.153612 -1.574337 4.725849 -1.113346 4.023707 -0.001363 -4.070897 1.657373 7.872521
was -0.609473 -0.407107 0.085820 -2.390940 -1.058140 -1.068651 -1.307664 -5.122570 3.597312 -3.728297 4.403951 2.192100 3.014585 0.361742 1.688565 3.157348 0.045243 4.436551 -4.809042 -0.364424
one 2.913457 1.429699 0.454910 -0.495489 1.367568 -1.837005 3.612206 -4.364563 1.559503 6.047343 2.386741 6.550455 -1.004712 -0.068938 0.070873 0.343191 7.918376 10.299057 0.474673 -4.182111
held 2.384027 4.588398 2.676459 0.627290 -3.548515 -4.842242 0.371053 2.993080 1.003003 -0.933931 3.484539 0.976649 -2.101430 3.587483 -2.476662 -0.122543 -3.014440 -1.715614 -1.995388 -1.572496
number 1.673149 -2.187627 1.470128 -0.877230 0.358224 1.913978 5.189302 3.799400 0.529046 -3.058443 3.397734 0.120636 -3.703361 2.977141 1.732775 1.810380 0.606190 0.741910 0.446062 2.194443
filing -2.670997 -1.258098 -1.879175 2.518145 7.465740 -7.721509 -2.729101 0.548508 2.007498 0.086455 -2.850746 0.280115 -0.129759 7.735331 -5.192839 -3.737311 0.234230 -9.090726 0.940650 0.519471
If -4.538670 0.754884 -3.180752 2.003407 0.447245 -3.100374 -2.976244 -0.571999 -5.119000 -0.809807 -0.467683 -2.515544 -0.220381 -3.330319 -2.958111 -0.047022 -0.998680 -1.818945 -0.870739 1.001676
any 1.383167 -5.069942 -3.747039 -0.925740 -0.648923 -1.678026 6.744069 1.715024 1.641878 -1.574572 2.850288 0.295251 -3.156084 2.707309 -0.009503 -2.208618 1.932051 0.747887 -0.532880 3.591145
LIMITED -0.252888 6.245121 -1.302001 -2.443333 0.291109 0.399850 2.770790 3.340222 3.655413 -0.371198 -2.757429 -2.934225 2.226719 0.972194 0.696912 -2.993078 4.151254 -6.264427 5.442624 3.165858
Authorisation -2.915194 4.057697 1.842516 7.095684 2.283088 6.612665 3.155640 -10.940438 0.409648 -1.149152 -1.008825 9.091191 4.261225 1.308458 -4.477549 -5.526033 -3.585879 13.135270 4.910102 2.206148
End 2.021825 3.137338 8.851983 -1.171508 2.266066 2.567262 8.833867 -6.200753 2.795643 -0.746742 6.383036 2.515926 -2.777166 1.239767 3.888408 0.642071 4.720959 3.204396 2.409928 -0.599905
CIC -3.485161 3.619674 4.983640 0.356382 2.367240 1.762239 -0.277399 -3.302701 -4.227299 0.643850 2.153050 5.267241 2.199172 -7.798497 -0.088059 -7.349743 3.492941 3.236358 2.319320 4.873634
authorised -7.272500 -3.555290 5.284025 8.909681 1.482622 5.442371 3.028549 -1.499867 9.378574 1.115399 -0.769846 10.346012 -7.819203 -5.022248 -2.790361 -3.121968 -2.969921 8.824084 3.125852 -2.398415
Secretary, -0.530864 -1.100313 3.038697 -3.676208 -7.915112 -1.079378 4.180138 -4.171003 1.218761 4.821582 3.905104 5.145620 3.862425 -13.110759 0.084273 4.760668 11.049207 3.952847 1.778122 5.061992
Charity 6.563529 -2.950168 7.351876 12.575200 -10.895774 -4.845538 4.851268 0.035554 -7.571487 0.148603 6.354282 1.657555 1.224463 -3.108288 2.175207 -3.981799 6.221080 8.935458 4.857035 7.218716
Judicial -0.825301 -2.401461 0.531218 4.963660 0.674411 3.698239 8.371863 3.224447 4.878716 -3.666217 2.575099 5.309931 -4.761116 -1.535491 1.864333 2.356277 -1.590027 -2.470037 -2.810491 3.304446
AND 5.657296 1.335614 4.152556 0.384531 3.949286 1.592159 -3.703233 -3.033926 -2.419028 3.203238 2.157603 3.725830 -2.236783 -1.201595 -2.233695 -2.442607 5.123887 -1.155154 9.022899 4.298204
following: -3.910893 -2.171650 -7.300397 -3.340283 -0.102655 -0.291532 2.057349 -2.045513 -1.094614 -0.630173 5.348585 13.541379 -5.219978 -4.190545 -10.510788 -5.468209 5.430923 7.862606 -3.482539 4.877645
Authenticated -0.068263 -8.511373 4.788450 0.433992 2.499290 -2.018422 -0.703854 -1.736823 9.006236 -2.211895 3.354066 1.893772 -6.863927 5.604899 3.330219 2.648528 -3.169683 -1.172991 6.004763 0.925536
Director, -3.148417 -2.786784 -4.281137 5.493835 0.221426 -2.333305 5.205695 -5.965294 -2.503517 4.474002 -0.277275 5.203377 6.028925 -4.522610 -13.838717 -2.954357 6.525957 12.653443 3.017784 1.650212
Authorised, -1.802295 4.168931 5.384555 0.758198 -0.201780 -1.573372 2.488112 6.506999 -5.707408 -2.638788 8.473927 -2.445801 -8.832790 -3.092988 -4.350474 -0.111667 5.257463 6.396024 7.904565 -0.112833
Commission 2.196821 2.303226 2.762474 9.299094 -4.877329 4.080248 1.424514 4.573370 3.787189 -4.181554 0.803110 -2.152366 0.839145 -7.286161 3.851620 -9.658331 5.395711 17.660511 10.069525 9.465289
Receiver 8.067043 -5.846874 -3.502474 4.590821 -0.429405 -6.667333 6.449411 2.309629 -1.868532 -7.846077 6.251596 -0.782399 -1.825158 -11.914326 2.492272 -6.496888 15.741917 0.536945 10.382339 7.215726
100 -2.635321 -0.064765 0.820607 -1.365235 1.317880 -1.069265 -0.939284 -4.845625 -1.228355 -1.063233 -0.083686 2.029966 -1.618242 1.309200 -3.940673 0.877792 1.868527 -3.780091 2.280646 0.988292
Electronic -11.060355 0.398303 -6.358349 1.120175 7.140265 -0.040468 -6.349228 -5.412673 -0.649325 -5.367278 -6.874938 11.531147 2.777755 13.168355 -8.165693 2.966280 -0.750430 -7.233932 -0.064582 6.876681
Received -2.639303 2.205398 -8.383187 -2.554116 9.757894 -1.069073 -3.043353 -5.279103 -0.179288 5.447291 -5.354877 11.646698 8.658366 1.406437 -2.170355 -3.705379 1.872713 1.599032 -1.122308 10.742543
Format -4.752731 3.173909 4.771758 -4.303438 13.284801 -3.787848 -6.112261 -1.450556 -0.204144 -6.914885 7.689697 13.856428 4.678531 7.562205 -2.476410 11.621001 0.238702 -11.720192 -4.281419 5.199079
Address -0.075388 0.938645 -1.934525 -2.692290 2.395020 0.477091 -2.027413 2.714889 4.515550 -2.945304 1.019539 1.169910 -5.440807 -1.727346 -0.653209 -0.050523 2.750615 0.272858 -1.154212 -1.652265
all -0.932762 8.342875 6.539689 -5.904792 -4.197282 -0.419930 -1.427072 -6.523789 1.742072 1.495186 2.918845 0.331097 8.966490 -4.264943 5.650135 1.567161 4.225495 2.607962 -0.076475 -0.081697
return -4.349347 -1.372889 3.150944 0.688029 1.495423 -1.031814 1.576495 -0.675776 3.810252 -3.149353 4.394207 -1.085932 -3.053568 -5.366472 1.378746 -3.966124 -1.699597 0.173348 -5.982759 -0.726217
are -2.338314 0.819841 3.494082 -0.193687 -1.449365 -0.259759 0.566396 -4.701921 -1.397557 4.196357 -4.346971 -2.842429 3.202743 -0.039165 3.128781 3.513489 -2.033985 -2.607303 -2.222280 7.870142
period -6.431663 -1.084170 1.385200 -8.119251 1.570189 -0.817721 0.767816 -7.402283 -0.806996 -1.845825 5.471918 3.178042 -1.319114 -0.313780 0.673864 5.174125 8.900662 0.984349 -3.124618 1.589824
been -3.037129 -3.673695 0.672482 -1.349775 5.813168 -9.985153 -3.835615 2.435386 7.025461 0.146832 6.528108 0.776486 -10.618952 -3.395545 -0.993017 4.821309 1.876170 0.917062 2.151461 -4.890955
more -5.463404 4.632645 3.774267 -3.257205 -1.424057 4.356814 4.000333 -3.302127 4.997252 -6.611918 2.480666 -2.714442 4.564017 -3.409078 -3.273611 2.742028 1.603996 -1.022972 -8.461256 3.005275
THE 2.534952 5.609463 5.086458 -0.239732 -4.629956 2.274488 0.997799 1.468170 -0.375719 -0.315323 1.261444 -0.679906 -2.021970 0.871690 2.117532 -3.002230 -1.297215 3.481098 4.757295 3.468369
Currency: -0.004685 3.143755 -2.692293 4.251660 -2.710859 -8.013915 7.024897 -7.440524 -5.555704 -3.497291 -0.464900 -1.229059 7.323268 4.447081 -12.469672 2.278872 2.531281 -10.049702 0.636780 0.988118
value: 4.013961 0.371993 2.325775 -3.683769 4.011065 -1.048610 -2.341764 4.581065 3.977475 -7.955264 3.862748 2.981886 0.078225 1.552153 -4.285625 3.836289 7.129226 -7.019064 -0.787069 1.096426
TO 0.430458 1.784774 1.305491 5.777971 1.022936 -1.981540 -1.876016 0.238828 3.008232 -1.558832 -0.444187 2.069807 4.704811 2.655029 -11.793325 -9.565738 2.355197 4.130231 8.210788 -1.068040
confirm -5.341157 -1.563093 13.799769 -5.458786 3.855562 -3.341215 -4.709632 -5.382521 5.780543 -5.381062 2.232979 1.295110 3.182771 8.918778 5.335900 6.682109 -0.578323 -7.063213 0.956820 0.125114
> 2.143736 -1.521925 0.107978 1.487135 1.193998 -4.002371 1.158469 0.765896 -2.815634 -0.869259 -3.052365 2.113687 -4.402509 1.787520 0.294778 4.255558 -0.052119 -0.249331 -0.983994 4.078060
Details -2.792607 0.985503 1.220718 -3.385220 2.384761 3.687897 3.122266 -5.889573 5.115076 -4.104338 6.546650 4.107728 -4.926452 -3.216748 3.881460 8.456476 0.404955 5.416982 -7.711206 -0.284666
share 2.019998 1.014965 2.779712 -0.832728 0.519738 0.224340 1.451525 -2.867341 0.339480 -2.236846 1.401101 1.836383 -1.239962 -5.447598 -1.335186 1.755576 5.603555 0.909984 -1.974674 -3.753969
Service -0.745499 9.611435 -3.453674 5.838840 -9.037370 -9.736738 6.663165 2.082322 0.619465 -0.824167 -1.451637 -0.656776 1.950839 -7.591893 2.331338 1.918375 -2.076172 -2.232291 3.687443 -0.785361
time -10.851510 4.821103 6.260751 -0.151250 0.371975 0.697591 -6.093601 -4.380660 1.186915 -0.717234 -1.335532 0.204650 2.370375 6.398523 -2.884603 -1.513824 -0.629793 -5.172766 1.348233 -1.270563
required -4.849650 0.851725 2.678752 -4.008406 -4.590181 -7.948968 -1.363596 3.554837 2.766948 -7.792432 2.351591 2.860681 6.344519 1.621950 5.118711 -2.536351 2.285424 -2.067627 1.324617 1.943146
either -2.229148 -8.646152 -1.906306 3.445782 1.853869 -4.964743 -2.733343 -3.132195 3.448934 -1.706656 5.383411 -2.226604 -2.253201 12.276319 -4.475397 2.051640 9.081492 -5.220078 -2.881645 0.266877
company. -5.847098 3.825867 7.322614 -1.863014 5.787195 3.735565 3.770851 1.376552 -1.623033 -2.049449 -0.331339 5.091417 -5.318629 2.606833 -1.360198 4.379860 0.352380 -7.106434 -0.457101 -0.834261
same -4.960407 7.801743 -0.751959 4.957870 0.088736 -1.237132 7.794967 -0.889899 6.490276 2.096835 4.612585 2.748792 3.864039 2.123510 -0.481906 3.952107 0.407503 6.210831 -0.119913 -6.138942
Document 2.939060 -0.432322 12.630026 0.227774 -6.385369 -0.460006 4.728683 -2.725754 -0.237446 0.996807 3.589231 10.594367 8.219913 4.924347 2.001473 3.157912 -1.080161 -5.654989 1.578067 4.755718
Factor 0.929552 3.796856 4.193148 3.496233 5.934880 3.623082 6.057153 -3.166269 -5.172967 -2.794744 -8.328885 -2.486890 3.905950 0.850975 -7.528780 -1.920755 1.542981 -5.379928 4.742398 9.126626
Aggregate 1.459616 0.239723 0.930636 1.645308 5.343886 -7.450520 -4.412428 -6.972951 4.523826 -7.568951 5.307929 -6.299267 -6.592685 0.189579 -3.803293 1.437272 -4.548560 -7.351926 -6.265730 7.483187
relation -9.447191 1.474774 -10.200583 -0.161526 5.373385 -0.682130 -0.008417 -0.305197 -0.069467 -0.517567 -1.469291 12.879559 2.499274 8.617588 -9.043255 2.443186 0.796437 -3.823983 -3.154136 6.941667
Annual 0.142085 1.829608 -0.383326 5.148422 -0.568791 -3.060456 3.764174 -6.777423 -1.100080 1.933386 -4.729788 -0.743709 -5.751492 3.776985 4.459617 6.361876 0.836269 -2.370449 -2.873606 -0.436043
being -10.669494 -1.480479 -5.188371 5.221502 5.556097 -13.203773 -1.338109 -3.665986 11.321093 -2.243500 8.397796 -4.112359 7.808552 -0.451458 -6.532060 -10.224834 0.371564 4.263496 -3.271514 -1.853239
than -0.667013 -4.686918 1.029749 6.680267 -1.781342 -0.868712 4.448829 4.173948 0.509218 -0.623354 -4.545601 -0.916727 -4.046739 0.477087 -1.806275 -1.621018 0.248395 1.813895 3.766817 0.554522
date: 0.468725 8.883955 -3.986096 2.418943 2.151966 -3.343035 -9.279462 -9.930487 4.115438 4.922588 0.617431 -5.338518 10.866808 1.703697 -2.198889 4.440702 -2.765040 -0.615815 -2.315058 8.126640
registrar -14.807124 3.334892 11.779420 -6.943855 -0.336369 -6.368637 -6.349136 0.748195 0.593575 -2.066496 6.676058 8.353283 -0.977481 3.471245 -10.864249 -4.586332 8.483838 -0.915834 5.154360 1.439348
concerned -16.185934 4.974914 -7.341191 1.120672 11.727873 -5.236426 -8.024375 7.847803 -0.674967 -11.288709 8.188076 -0.053795 -6.323492 7.200125 -12.414642 0.795355 3.550139 3.321273 3.761537 3.746684
csol(eo 7.734958 15.249006 -3.081555 4.288018 -0.805138 -3.075173 -11.928259 -12.653452 7.923542 8.610540 3.588013 -2.663024 14.796826 2.716861 -1.916629 4.345775 -5.694304 5.976308 2.834288 11.572576
Filed -2.275833 5.034740 -2.195180 5.503873 1.884490 -5.437278 11.965892 -3.404700 1.272883 5.019482 -5.631424 1.635791 4.151316 -8.514092 -7.421580 0.921552 -2.082132 -1.943179 12.512286 1.288429
Shareholding -1.972925 4.802938 -1.907884 -1.067387 1.028847 -10.040009 1.686972 -4.545021 2.849442 -4.236457 -1.879063 4.830601 -4.249063 0.352942 -2.107262 2.045412 -3.960696 -6.679076 1.480621 0.530132
address 0.671171 -0.365127 1.938709 0.289074 2.110836 -0.488340 -1.484349 0.138430 7.205781 1.072666 0.505682 0.211568 -4.387914 -0.586922 2.600506 -4.880549 -1.645760 1.039631 -2.172370 -1.094752
Please -2.047959 3.944614 -0.657452 -2.122893 -2.553262 -1.577671 1.821961 -0.590835 -5.744447 -4.486530 -0.247261 -1.138939 -1.926054 6.222281 -0.713260 4.587841 5.010587 5.263534 2.965437 -1.906541
Nationality: -0.464070 -6.455117 -0.700067 3.380239 -0.143971 -7.761068 3.960049 -7.088641 0.594394 -0.083917 4.422001 0.386985 3.801445 -7.793318 -0.592554 -3.692775 1.047123 1.359764 -3.926900 3.304934
OF 5.163710 8.424147 -4.302552 2.194857 -2.174380 1.076689 -2.663587 -0.405860 2.190098 1.567411 3.768616 -0.588697 4.054609 -5.271485 -5.909100 5.197082 2.407917 0.310087 2.381258 1.109145
below 0.454313 6.332655 0.566999 -8.111564 -7.098862 0.028116 1.639288 -1.262494 -1.673659 0.020542 1.776348 2.509989 -1.974010 -5.755502 2.867590 -0.568535 7.141436 0.793526 2.874774 1.913962
Usually 5.306601 -4.341621 8.506916 12.280237 -4.339262 -0.098364 5.719797 -2.282899 6.154729 -1.288563 0.183760 -0.684487 -2.694148 0.482712 5.964488 -1.788641 -2.482630 -1.970276 1.723011 0.845827
Resident: 3.786042 -3.016226 -1.933248 5.145032 2.024600 -8.024851 1.949137 -8.204809 -1.241547 8.686273 1.560883 5.233882 -11.667070 -11.394049 2.028207 7.250150 0.348832 5.278759 3.634996 6.230988
particulars -5.594765 5.103912 4.081325 -0.983596 -1.094710 2.717019 -8.455803 -2.867904 2.059746 -3.791795 0.590621 -1.306254 2.981804 1.696916 -2.258185 4.745322 0.031113 -0.822322 -5.036798 -2.036415
Full 2.160649 -1.741765 2.301069 -2.848997 6.698637 -5.510055 7.348481 -0.549488 -6.274372 -4.358109 -4.311013 1.117323 -6.231526 -2.226127 -1.397908 -0.632927 2.154051 -5.446647 9.814556 5.886555
A 0.483618 -2.431812 -5.244060 -0.873599 -1.219327 -1.929622 3.604466 -0.073987 1.633250 -3.492931 -1.683793 -1.670148 -6.470264 7.673426 -2.301463 0.301009 2.747540 -2.520713 1.253623 2.834178
directly -7.244967 -0.560055 -5.088053 9.118473 6.564170 1.127759 4.775303 10.444537 4.065495 -6.069567 -1.814679 1.934052 -0.240931 -7.078315 -7.849558 4.124772 -2.182310 1.615251 -6.785028 11.304537
indirectly, -9.385592 -6.744340 7.812379 11.614280 4.934271 1.822743 4.499743 0.333953 12.635863 -0.569388 -1.772853 0.365730 -4.153307 3.477285 2.508045 5.499175 -7.614213 -0.373084 -4.181213 6.903734
Birth: 1.991732 -3.706758 2.610632 4.046971 -8.724679 1.065341 5.526988 -8.945654 7.373044 7.235720 -1.510492 2.975638 -3.457113 -12.130586 -0.080002 2.760641 2.235474 -1.402981 2.363898 6.461524
allotted 0.818277 -3.421120 -3.583844 -2.609390 5.483535 -8.347121 -11.112652 -7.606026 3.474028 -2.982002 -5.055724 -2.041724 -0.279858 9.899492 -11.948433 1.496113 8.763607 1.753920 6.298004 1.887829
Prescribed 0.348042 -3.229634 -5.166493 -0.047836 0.906340 -3.090854 2.872128 3.898822 -2.417402 -11.164107 2.125170 -8.135109 -11.467356 0.517148 -6.150348 -4.612994 4.352522 -1.330810 7.216019 9.403418
Name 1.098376 4.765883 -2.823184 -0.882394 -1.964433 -1.072684 -2.005967 -0.824550 -1.712649 -0.214212 -3.519483 0.239618 -0.060071 1.655201 -1.684407 2.368178 -0.412420 2.074073 -0.351546 4.827997
value 4.745996 2.402670 0.706829 -4.394681 5.375589 -0.983921 -2.535658 4.516432 3.698807 -5.331295 4.756357 2.280457 -4.759053 0.070438 -3.957992 6.752875 7.395569 -6.153760 -2.771506 0.506906
ENGLAND -0.905476 -5.319468 -6.872075 5.272360 -0.740573 -1.356444 10.089349 1.539204 0.758088 -1.978389 2.087231 7.502896 -8.587112 -1.302297 0.614918 2.226821 1.994914 -2.318795 -0.472633 4.981876
control -1.166348 4.479407 1.973255 2.856890 4.256365 3.069204 -1.652600 -3.875029 0.942702 -0.536684 -2.615493 -2.310932 4.359199 -5.919661 -0.439888 -1.166193 -1.951790 1.601835 -4.203414 0.989505
Return 6.124362 3.836707 2.834171 -5.168834 -4.490520 -5.025787 -1.354857 2.856981 -5.742777 -0.658421 5.801960 4.741446 0.112674 -1.488240 1.067455 0.565858 3.297299 3.073588 1.367682 4.612701
RIGHTS 1.218933 2.764685 -3.279180 2.851078 -2.105626 -0.693419 -0.354877 -8.152768 4.116749 -3.102305 -0.672308 -2.539264 -3.224285 -4.270999 -6.840284 -4.560429 1.281623 -3.215962 -3.506532 3.231950
not 1.973852 -3.663128 -0.253838 1.341151 -1.966664 -6.650870 3.071439 5.586293 -4.187041 -3.065488 3.585780 6.202694 -4.701553 -0.030456 0.839873 -1.155741 1.110988 3.530518 2.124737 -1.174347
UK -0.321006 2.791073 -1.162781 2.209282 0.141598 -3.841514 -0.933550 1.570023 -4.713232 0.560685 -2.432020 -0.911063 -2.946609 -5.982249 -0.390125 -0.063039 -3.341471 -0.974826 3.236048 5.062077
BRITISH -2.177600 2.372552 4.815202 -0.087463 2.991639 -0.778553 1.082775 1.930910 5.205390 0.856877 -2.282427 2.658432 0.408633 -8.053679 4.895209 4.165330 -1.733536 -4.272655 3.498898 1.350391
4 0.533059 -1.429258 1.597371 -1.960021 -1.312128 1.432786 -0.614591 -5.667371 1.605988 3.053566 -1.346735 -0.404254 0.374817 -0.993610 2.511445 0.365678 2.714876 0.580822 3.380168 2.095681
LTD 0.965437 3.041877 -1.429856 0.477062 -4.401058 -2.079700 6.817864 -4.640672 -0.106435 0.429157 -1.645917 3.959546 7.007496 2.050776 2.762969 -5.597897 8.005591 -2.099189 5.646183 -0.061880
(Totals) 5.415658 10.312378 4.655897 4.422630 1.746008 3.934251 -5.144073 -7.705921 3.604315 -0.570524 15.769715 -5.696515 7.505701 -5.190215 -8.184348 -10.925663 -3.635694 10.558174 7.248301 10.620984
(Share -2.213039 5.130899 5.638651 -3.908573 -3.882084 1.031592 -1.559093 -12.984040 4.367076 0.608122 8.890551 1.651231 10.021378 -4.710849 -2.930313 1.586795 0.968144 2.970605 -2.462716 1.828377
Capital) 4.432741 1.930514 4.539647 -0.159074 1.034691 0.253719 6.872248 -2.021598 -0.299683 -7.656191 -3.198662 -7.297634 -3.329445 0.122192 -4.950931 -1.755067 2.103286 -7.262215 8.103659 11.406754
Type: 1.051784 -3.174037 -0.469052 1.347996 -1.841770 -0.247533 1.786420 -10.977372 3.541851 3.448861 -3.248625 2.525140 4.348814 0.342386 6.006651 2.711847 1.429414 8.628545 -0.156726 2.428210
Director 0.392375 4.287930 0.681885 -1.595177 0.610224 1.438877 1.230152 -3.420438 3.082213 -0.673112 0.409289 -0.132242 0.985386 1.582448 1.841423 2.102986 0.589002 -2.217725 -3.415632 -2.027779
holds, -10.624825 -2.039493 2.152326 5.741832 2.019777 -7.057662 7.576113 -0.411929 6.132023 -5.174065 -3.852797 -5.794869 -2.280252 -9.183766 -2.847513 6.238448 -3.820702 -13.977217 1.452692 7.778741
Postcode 5.755600 0.060563 0.490988 2.004361 -0.537551 -0.771778 4.884332 -2.157156 2.540707 1.339542 -4.707874 -1.959640 -2.722672 2.539536 1.323973 0.701158 1.128968 7.793069 2.936342 5.986847
amount -0.149948 5.373723 0.722188 -3.293692 -0.594697 3.815101 -2.096461 0.800945 3.120080 0.008383 2.741602 -7.323489 1.925415 -8.530904 -3.770725 1.534458 6.201786 -0.655227 1.507782 3.118333
registered -1.681827 -2.817212 -0.857519 2.154818 3.257576 0.121073 4.685805 -0.806550 3.083524 -2.142384 -4.534213 3.711483 -7.564683 7.190867 0.794084 1.800718 -3.093341 -4.074559 -1.299687 1.311274
with -5.233362 1.118777 0.877526 0.162879 -0.808469 -0.254066 -2.183784 0.743461 -0.209854 -0.430124 -1.101605 -1.800693 3.131270 -2.132263 -1.765231 -0.129749 -0.117386 1.736011 1.769548 -0.732833
you 3.510095 -2.409708 -2.448679 -1.499532 -2.163642 -7.197165 4.659374 2.256962 0.526732 -3.948686 3.521595 1.986493 -3.742126 3.059302 5.127025 3.481603 2.915465 1.960700 1.243666 -0.091609
3 0.598109 -0.818693 0.587738 -2.093990 0.304564 1.143352 -1.025420 -4.187906 0.780447 1.965438 -0.691766 -0.582226 0.986951 -1.596149 1.285984 -0.070692 2.119137 -0.076231 2.725757 2.533069
O -0.872139 -3.595505 0.648593 -0.028118 0.177086 -2.961946 -2.210117 -0.291088 0.760946 2.866981 -0.391240 -1.340554 -1.570351 1.441746 -0.095261 0.389950 -0.350133 -0.769675 1.071675 2.632551
ceased -3.999615 1.073999 -5.951743 -1.171971 -8.760895 -2.189316 0.281466 1.238480 11.334882 -3.007664 1.479007 2.611874 -6.763340 -4.605955 2.259121 7.812933 1.629876 -7.284259 -3.948781 -0.236522
have -1.134581 3.478120 4.124544 0.764811 -0.102083 2.087731 -2.930531 0.208435 -0.124709 0.879311 -0.617226 -6.056766 3.347182 2.561841 1.411126 3.097822 -1.574852 3.350931 -3.077745 5.482156
please -1.056168 3.096231 -1.007906 0.684800 -2.681146 -0.531402 4.946736 1.507015 -2.748713 -5.976344 0.255817 -0.147875 1.774998 4.523848 -2.521814 4.253695 3.321455 4.184270 0.725937 -2.536782
DOG -0.600527 8.916036 -9.058377 5.399862 -1.178151 4.005518 -1.259856 -7.251243 3.886885 -1.270346 1.644618 3.812882 4.001596 -0.294770 -6.577906 1.201102 -2.871129 3.548850 -0.156190 0.836694
list -2.010417 -0.185700 0.064215 -0.611982 5.348096 -0.850970 -2.738764 0.086121 0.184194 5.698798 -1.930281 -0.771131 -4.931598 1.143587 -2.053153 1.117093 2.083014 -6.515072 -0.830386 4.654107
Address: 1.651269 -4.729976 -2.464384 -0.127982 1.630918 -1.997827 0.662231 -1.411644 5.461168 -2.664459 3.371770 -1.054736 -9.457633 -4.699432 1.283201 -0.369611 2.097117 0.868852 2.577929 1.737077
office 1.713968 -0.530256 4.665124 4.955264 -1.516043 -6.141530 2.915721 0.942480 3.900032 5.664484 -2.054093 -0.887456 2.497509 -0.252462 3.357827 5.402913 -2.032844 4.077207 5.180985 -2.237078
5 0.490819 -1.952808 0.573797 -1.826493 -0.945357 2.056496 -1.429598 -5.117978 1.039058 3.235981 -1.475201 0.336235 0.347211 -0.825150 2.031983 0.261748 2.878890 -0.516811 2.309984 2.452729
IN 4.377912 -2.324676 -0.704568 3.010738 -0.541304 -3.704747 -6.515681 1.909642 6.792673 4.570928 -3.736295 2.420263 1.635703 2.970449 -10.238501 1.338583 -0.229876 -2.209335 1.433980 6.914299
Section 2.225432 5.722388 0.997858 1.003149 -1.056507 -0.898585 1.408754 3.153831 -1.153240 -1.979343 -4.999440 4.632343 0.892328 3.123076 -2.542620 1.158972 0.387756 -3.081672 -0.460249 -1.305592
issued -0.405064 3.637583 -0.350052 -3.837899 -0.244220 -0.949143 -3.082335 1.785644 0.621677 -2.507868 7.379846 -1.240698 2.191454 -1.060897 -4.482917 0.949507 2.491708 3.074740 -2.512555 1.679459
SHARE 0.231240 -9.162000 5.515429 8.287012 -2.561122 -3.909949 -1.296108 5.283306 6.526100 -12.316708 2.928750 -2.540057 -7.732595 2.236276 -4.488763 -4.556170 -0.176694 -5.259387 -0.274726 3.053397
if -7.868062 0.822943 -2.489037 0.833105 2.286807 -2.911875 -4.531743 -1.846312 -2.942340 -1.776257 -2.947798 -2.093273 0.067264 -2.905957 -2.402744 0.123548 -1.273711 0.778254 -0.655825 1.110180
Company's -1.461136 4.065825 2.811708 11.875690 2.066701 -6.897006 -0.905197 2.194361 8.310211 3.697252 -9.990764 1.878859 -0.478851 -5.091872 2.555793 -3.253869 -9.384202 3.319606 0.863888 0.292522
up -0.182514 0.907948 3.699233 6.747330 -4.121681 -1.528471 0.621811 5.499219 2.901798 3.233435 -1.978103 2.374056 -9.088264 2.833864 1.789272 2.497449 -3.480210 0.148619 -1.784588 0.121413
became -0.040901 5.838945 2.575799 3.894302 -5.496109 -4.918250 4.392694 5.874340 4.594986 -1.762547 3.687758 0.818085 -2.243558 -9.986109 12.453460 10.935715 -2.144639 -4.061901 -1.547446 6.771392
must -2.821846 -1.670509 3.817708 4.502229 -2.887303 1.876433 -2.968661 -2.276378 0.122095 1.260036 -1.843799 -0.120889 3.030036 1.968380 1.628895 3.224429 -3.995530 -0.616343 -0.486506 1.945302
Notification 2.457177 -2.223057 13.225903 -2.669603 -3.001267 -2.806242 9.497492 -2.210997 3.678389 -3.032714 -2.780687 -1.554268 7.913063 -7.527249 6.708551 3.351740 2.519310 -6.853736 5.680043 9.411452
Shares: 7.749584 1.111609 6.876560 6.912087 -6.005676 4.004771 1.971132 -9.896231 8.909904 -2.011870 3.679997 -9.502486 1.298453 -5.578317 -3.203398 -1.823412 6.342718 7.206017 1.516226 3.365163
SHARES -0.001350 -6.066783 2.551388 3.730052 1.155160 -4.893324 -2.417475 -1.199936 2.274501 -1.773762 2.992323 -0.929528 -5.287139 2.833939 -4.732885 -7.602301 -1.150721 -0.929400 -0.382184 0.553000
Country/State -0.230590 2.758169 -4.018939 1.435342 -4.770205 -9.088954 2.202554 1.787155 5.788893 -0.093546 -0.874276 5.837598 -3.896555 -5.301787 0.647008 5.510506 -3.798824 -6.840061 -6.048095 1.570354
Nature -0.116371 4.114219 1.405659 2.682464 1.946258 0.599834 10.391068 6.449369 5.187491 2.677580 8.199751 2.150954 -9.900160 -8.832383 1.461461 2.758220 -3.037969 -1.033898 5.799882 8.193733
Shareholders -3.006740 2.058574 -1.718420 -5.222648 3.377174 0.826036 2.456485 -3.214972 0.047960 -6.390655 2.672236 -1.066991 -5.032317 -6.899659 1.430239 2.219021 2.190478 -6.989457 -6.165810 8.285255
but -1.282851 -7.704251 3.988462 0.924891 -4.856256 -6.943138 3.654573 -2.593624 2.721317 -2.057762 1.405444 -3.764433 2.637732 0.541064 -5.150184 1.862948 9.212005 1.270901 -0.177729 0.521680
correct -0.641193 1.826817 -2.471865 1.640117 -4.142892 -4.831772 1.824261 4.917413 -1.111093 -8.006079 2.272210 -0.480404 7.131786 5.088837 -7.048192 -8.567173 -1.357690 2.238070 -1.383807 1.331690
FULL -4.790384 5.951617 2.041237 1.311717 -0.458202 1.502568 -1.111933 5.011175 -3.636842 -4.166794 2.748848 -1.616138 1.061178 0.220031 -6.161192 -1.630788 0.845047 0.750120 4.076895 5.926437
• -2.373810 4.731981 -0.084601 -0.592539 -0.497438 -1.596528 -2.751403 -1.026052 -1.555841 -1.605658 -2.342683 1.472788 0.959491 -3.253190 -2.945134 1.766872 -1.179793 -2.773333 0.639945 -1.287509
fill -2.732759 -0.395321 -2.074847 -0.330615 9.308558 -1.882556 -4.179881 3.189877 0.244022 -2.333259 -4.824458 0.928229 -1.277324 -1.080448 -7.497412 -0.326723 2.129787 -3.722050 -6.074893 7.883880
recorded -8.502515 5.684260 -4.443900 22.686838 -9.666846 -5.227206 4.889934 3.190827 9.232642 1.137886 -14.357256 1.724651 -13.195976 -6.171053 5.145933 -1.952090 -9.459263 4.120408 8.537088 2.669921
made -1.275634 -3.930358 -3.487391 -1.733754 -4.758137 -4.772638 1.875827 -6.387935 1.067002 0.742430 4.024396 1.824608 1.877722 -3.284908 -2.487660 -2.528082 6.876624 -0.120382 -3.943397 1.249711
the: -0.240207 13.861604 8.793700 -7.050873 -2.371130 0.649395 -2.283427 -1.609704 -4.639967 -9.430195 0.341550 6.762253 5.763181 14.014641 -1.299031 5.220810 4.891834 -13.796228 -3.881982 14.104151
registrable: 3.676339 10.576995 -9.486409 3.654188 -9.199406 -6.053937 2.366837 -1.815877 12.475381 2.859258 2.834856 -2.753363 3.516572 -16.778547 10.425680 3.400607 1.053636 0.411454 -0.737129 10.342685
since -3.780337 2.526522 0.041260 0.635270 -5.945867 -1.597349 3.725109 -0.627855 -4.812105 1.551299 -0.240017 0.600218 -1.015398 -2.965533 -1.707660 7.811427 6.816388 -0.305310 -2.001566 2.881878
KINGDOM -4.994516 1.528695 -5.608212 12.466435 -4.060879 1.811249 6.493419 -2.326305 1.673776 9.218597 1.998961 5.688728 -0.534610 -5.916893 0.645656 4.352798 -2.825896 3.187382 0.115202 5.843836
shares: 5.766165 4.184656 4.788540 5.346688 12.087037 -3.360328 6.424453 -10.547084 -6.863217 1.665601 2.318922 -3.800027 1.675123 1.318056 -6.013626 3.429137 4.056167 3.398185 7.458599 9.595341
unpaid: -2.836741 -8.579972 1.992204 2.123525 8.529953 -0.186968 -0.376995 -4.329987 8.264354 -7.282871 -3.642128 6.318638 -6.874208 7.927975 -1.507927 2.358444 0.319472 -2.170943 7.959205 -0.390466
UNITED 0.555817 -7.848129 0.909485 6.920588 2.687737 -1.909188 5.491495 0.203424 4.794129 -4.381366 -2.165544 11.215283 -8.946671 4.068296 -4.161877 1.103795 -4.882661 -5.796950 -0.202082 1.937454
Amount -0.581931 -0.003478 -1.452522 -1.981908 -6.506324 -3.957850 -4.859772 -4.974940 4.774757 -5.027530 3.670188 1.812146 -1.290240 -2.070302 -1.584387 9.392825 2.434201 -2.756669 -4.109118 5.865638
EACH 2.784884 3.151118 5.094150 0.794655 2.642584 2.258528 -3.709280 -1.542151 0.170816 -2.309550 -3.499189 -2.401801 -6.551138 7.091947 -6.169753 -3.285144 1.044321 4.492031 3.960387 6.517634
Currency 2.228839 2.893097 3.525927 4.930159 -1.839007 -3.703418 3.960318 0.540125 0.718701 -4.947055 0.421213 1.204962 7.844293 3.080389 -13.001882 -0.238920 0.168638 -4.382435 -2.308606 -1.093395
"Amended -7.357752 1.711067 -3.176582 -1.542665 3.605032 -1.090678 -1.524352 -4.864964 -10.074547 -4.038742 -5.867956 -0.110296 -1.474606 -5.120348 -10.260026 -2.692804 11.068598 -0.132391 1.020031 6.793808
PSC -1.141595 -1.239706 4.124380 0.763037 -0.281672 -5.505932 4.745277 1.594339 1.981109 0.162395 -2.000135 0.918917 2.993846 -4.100971 4.543652 -4.471845 -0.032137 4.680239 1.598907 1.213351
column. -0.291010 -2.273970 -3.613325 -1.783972 2.166854 -2.290010 3.489796 -10.092267 0.221490 -2.608222 1.263317 4.968047 1.158356 -4.173202 0.024336 2.088941 5.933028 2.693766 -3.277085 0.147883
Registered 0.288943 -1.563260 -7.158692 -1.867516 2.634090 -3.497837 2.153671 -4.309190 0.461487 1.626860 -6.394688 2.782216 -4.321212 2.752278 -2.110974 -0.098973 1.729411 -5.469650 2.422956 4.852650
Surname: 0.922946 1.433085 -3.295757 7.265844 -5.221469 2.824089 6.711710 -6.080968 3.185747 -5.079813 -0.474963 -8.577878 -5.685526 -7.187829 -3.110018 2.222218 1.879593 -1.783971 -2.258940 7.154939
per -1.499050 -2.934248 -1.155693 -2.636985 1.411853 2.423473 -6.195308 -1.424784 5.414411 -7.412752 7.232824 2.270468 -6.287216 9.561130 -3.200865 3.197530 3.039592 2.542316 2.102004 5.192084
REPORTS 0.493384 8.938560 -6.385125 1.363332 11.688379 -0.605532 -2.636792 -10.670515 -3.034739 -6.313088 3.283281 6.063238 2.533530 -0.573447 -8.098328 -1.950554 1.279818 0.472587 0.275682 2.662574
shown -5.314420 -2.751181 -2.176297 -1.050002 -1.703339 -8.370630 3.479369 0.673436 0.924908 -5.953256 -1.321268 3.768059 -0.865604 3.654580 -0.647481 -0.112907 -0.487497 -4.750464 -0.288167 -1.662951
: 10.299891 -2.742958 2.575326 9.208225 -7.854608 -4.290137 0.606663 -3.449667 2.077841 -1.365313 -0.078497 5.210265 -6.268953 -10.871427 3.774934 -1.817328 2.813031 -1.963945 2.049292 6.006558
wrong, -0.572396 0.377874 -1.144531 4.031147 4.097013 -15.286235 13.215625 -2.118420 -6.800494 -6.488538 0.293752 -5.032468 -7.226894 -9.237352 0.829535 -2.819976 3.585484 -1.948998 -1.136176 5.064353
(PSC) -1.815862 -7.122282 2.094305 -6.720867 2.029068 -6.076799 -0.811463 -4.949975 5.093853 0.770792 -2.233806 2.976593 -4.788311 -1.333781 3.008785 3.542888 3.539711 7.887044 7.941287 6.049867
names: 5.024783 5.138122 -2.961413 7.677144 0.403675 -5.251107 5.011826 -4.399425 -0.723029 -2.530596 -2.549924 -4.318375 -8.310467 -13.567000 2.365636 -4.307651 1.139830 9.351737 6.497012 6.824354
corporate -5.250941 1.365083 0.668207 -1.353148 -0.069779 1.047588 2.108043 -2.119577 2.324966 -4.054583 -2.886120 -3.826765 5.362323 -4.889080 -0.669972 -2.517975 2.343396 2.124712 0.913668 1.056754
- 0.796693 2.961730 -0.100559 0.584133 0.388010 -1.644312 -2.738559 -0.319228 -1.543376 -0.498024 -1.522827 -1.962361 4.887422 1.316355 -1.096904 7.108267 1.356159 -2.563549 1.520638 0.499274
forename -2.089991 0.081072 -3.671988 10.298367 4.184863 0.614357 8.166677 -8.598790 4.484107 -2.031956 -11.389038 11.454832 2.444320 -0.425814 2.477392 9.082607 -0.519577 -6.730818 -3.974958 6.248640
bodies -1.073150 3.780480 6.242046 0.606286 -1.147568 -7.864339 1.958212 11.800383 12.285355 -3.560691 -3.290180 -2.242383 -6.664042 2.210458 -0.582034 8.700302 -1.567145 -8.351017 0.955363 2.688327
ON 2.482826 2.005677 0.997473 2.583646 -1.810419 -4.744833 -2.892542 3.030545 -1.209025 -1.030745 3.282987 -5.835724 3.490361 -2.591721 -1.666050 4.110998 3.561446 -2.718784 -1.040169 1.924312
previous -3.079509 -1.203933 -6.697783 -0.489368 -1.344070 -10.123720 -0.390939 -2.348867 -3.834376 -1.778663 2.275887 1.302885 -2.558830 1.652202 -7.722090 3.394257 1.925393 -0.191126 -9.704066 7.256772
(s) -2.320535 -5.018020 -2.858336 8.405921 2.457942 0.658980 1.696373 -10.443005 6.594434 -2.688102 -8.785709 0.080152 -8.620984 -2.091285 -0.529356 2.967564 3.960943 -3.212021 11.439454 3.729649
through -2.903260 2.848976 1.788856 3.253382 5.269042 -8.999455 5.305995 8.754012 -10.412876 -8.050551 2.082217 7.859835 2.130796 -5.228478 -1.862464 4.559108 5.704129 1.929056 -0.879289 10.435386
give -3.400720 -1.569450 1.044175 -0.499382 2.561700 -3.153014 -2.801198 0.381623 -2.574347 1.193638 -2.422028 -2.031463 -1.620268 -1.525853 0.308959 0.723575 -1.667626 0.464366 -4.404820 8.142590
IS -0.808534 -0.810980 0.750574 2.383308 1.718315 0.281598 0.407690 -1.632879 -0.512242 2.170219 -0.938181 -1.002594 2.133514 2.511910 2.310883 3.552022 -2.674221 -1.773948 -0.409077 0.988314
details" -0.191634 2.606407 -0.987872 -0.706657 6.648000 -3.372448 2.134663 -2.873010 -3.239398 0.204662 -3.929691 2.725326 3.849998 2.276433 -4.956094 1.739716 0.197530 7.367350 -1.318924 7.919594
them -0.817159 4.257585 -1.447356 -0.244412 0.688382 -0.881288 4.512606 -0.040968 6.306560 -4.253268 -1.660259 -0.039539 5.857066 -8.159144 0.238392 0.119164 1.105568 -1.178223 -4.075567 3.041252
Significant 5.693366 0.058760 5.256004 -5.387117 5.270349 -5.567679 1.361681 -6.532615 2.454895 0.396675 8.275892 3.527660 -4.214429 -3.393138 1.670654 -0.231011 4.332594 2.365493 11.067299 4.113380
Control -3.845909 3.331637 2.149752 -0.067257 8.099250 -1.261407 0.279577 -7.061366 -6.007024 -3.110574 -1.238526 3.403636 -2.739255 -8.734649 1.065808 -0.548077 7.274773 -0.901493 3.359887 3.695623
ONE 1.382994 1.251162 1.948102 4.263588 2.921669 -0.075220 -0.478369 -3.011522 -2.906760 -4.953192 1.363988 -1.159815 -1.659114 6.113862 -5.998651 -2.976447 1.513493 -1.531021 -0.756984 7.123602
Forrner 3.362522 1.912189 -5.019074 0.219616 -6.245264 -1.665710 6.036215 -6.968812 10.438737 -3.621009 -0.837128 2.387161 -0.341135 -8.840275 -0.485047 1.905689 7.985082 2.315209 5.617103 -0.988757
Persons 3.559834 2.335258 2.716420 -5.962308 9.614536 -2.700727 9.731039 -11.724774 -0.770591 -4.809868 0.469558 5.767459 -7.967763 -3.827551 1.545567 3.905463 5.536818 -2.261524 8.743082 5.399041
strike 0.622752 6.378994 4.389468 -0.134627 1.391207 -10.556346 6.569498 0.312342 -6.637210 -4.484157 1.299371 -3.379385 2.415638 1.892026 -2.612520 3.615480 0.541134 -2.656172 -0.476665 7.335717
75% -9.234973 0.781017 1.812205 -1.380423 8.115346 -3.611115 4.223517 -1.869124 2.531552 -1.783453 2.544759 2.565968 3.200167 -2.951936 -9.582774 6.877788 2.436779 -2.603860 -2.960819 1.740415
Country 3.493494 3.349042 -1.815505 6.694205 -0.792573 -5.053912 -1.082820 5.606509 5.173453 0.869600 -3.229192 2.813893 -2.934044 -2.077656 0.127784 4.456765 -0.740368 -3.462694 -3.495768 -1.656348
were -5.581532 13.586288 3.780999 -0.188715 4.203658 -1.722199 0.240293 -2.955050 7.438323 0.299790 -5.920861 -5.484868 5.461557 4.846869 1.936151 5.908117 -0.044194 -10.397907 -1.000704 0.420417
notifications 3.230898 3.292038 -5.503908 0.074027 0.803393 -6.226059 -2.803195 -8.810958 -0.223922 8.768515 6.412432 -5.054296 -1.886284 -11.232745 4.618572 7.231485 6.351399 6.266002 1.537785 12.580039
your -1.156514 -3.477299 0.954960 -2.941150 -0.560060 -4.574479 0.365504 1.025329 1.867031 -0.359527 -0.233135 -1.900022 -0.529622 6.559170 0.937726 0.133605 2.096145 0.103569 2.879124 2.232193
0 -2.107472 3.265603 1.012448 -3.717937 1.772678 -0.082813 -1.665196 -0.525744 -0.809258 -3.643529 -0.002157 -1.152433 -2.672871 0.249502 2.669851 1.196671 0.881098 -0.618472 -0.620918 2.984005
50% -9.617788 3.854248 7.264357 -3.077625 5.998796 0.646660 5.350660 -5.708481 3.511610 -2.915565 5.890742 6.592912 7.408200 -2.945560 -4.640584 7.958644 -1.685441 -1.605795 -8.281797 7.169257
Occupation: 1.270277 5.686494 0.296305 3.639108 2.181970 -2.193468 7.400345 -4.332879 0.358291 -1.448223 5.727457 7.600505 3.401086 -11.585813 0.877433 -0.041005 -4.400595 1.488696 -1.350296 6.341187
full -2.330422 1.850614 6.828983 -2.845089 3.270612 -6.699138 -1.165414 -3.754423 -7.414310 -1.398385 -1.754902 0.822259 2.403024 3.611650 -2.078321 3.168501 4.604461 1.002679 2.383549 -1.565475
In -1.394192 1.826095 2.333375 -3.130327 0.166786 -0.146187 0.448508 -1.151371 -2.274656 -0.127381 1.532969 -2.593610 -1.276813 -1.152869 2.234556 2.413275 2.942529 3.189626 1.921893 1.255174
relate -5.625045 -3.613546 -0.914432 1.980409 -2.133154 0.867782 5.857403 3.457110 12.032411 -13.523159 -5.911865 1.162774 -6.572691 4.458745 -1.490790 9.014035 -6.181990 -12.163076 -11.179287 15.333802
had -2.411820 14.877620 -5.502596 2.503321 -7.914424 -10.516235 -7.373627 3.713364 20.091835 5.815665 2.344355 -12.384985 3.355730 0.982965 -3.784283 7.372221 -3.412498 -2.838915 -2.363242 8.624761
ANY 4.654341 -3.057407 7.150517 6.613666 -4.252057 1.238753 4.414855 -3.088647 -3.638929 -2.463976 2.706877 -0.343666 -1.798963 5.588466 -1.946966 -3.315275 5.215408 1.051939 7.272708 6.693327
State -2.376431 -2.266968 6.304554 9.749748 -0.482838 -4.600079 5.733386 3.395106 1.728257 6.239611 -7.656930 4.135869 -1.296378 -2.391968 -0.903098 0.374748 -5.849447 -5.249918 4.938641 8.647142
Il 0.542517 1.615405 3.771178 0.481635 1.816896 0.172579 -4.040693 -3.865392 -2.483834 -0.868308 -0.336689 5.012753 -1.761701 1.908898 -0.242549 1.412238 1.887883 -1.800500 1.996976 4.613359
Shares -0.609866 2.693924 1.195531 3.739898 -2.073165 2.511246 -0.294004 0.175106 4.821434 -1.066191 -8.085608 -4.175733 -0.255544 -3.364587 -0.545641 0.713823 -1.562177 -0.719634 5.079737 0.262784
VOTE 2.727813 6.385820 4.350619 9.745890 -5.934752 -0.425560 -0.613662 1.187195 -0.638844 -5.931522 2.019438 -4.041999 -0.362357 -2.269402 -3.432209 -4.020047 -4.000800 8.918937 -5.156767 1.825834
COMPANY 0.726982 -3.666292 -1.455160 4.163883 0.382438 -3.519153 -2.924078 -5.065796 -3.712094 -0.622983 -1.323419 4.506626 0.101343 2.600540 -2.085950 0.634676 -0.896933 -0.833991 -1.491591 0.472479
You -1.005625 -2.134093 -6.265540 -1.638715 0.040359 -6.496969 2.192808 -2.528366 -0.522990 -2.919008 -1.537939 2.849961 -5.794202 -0.037028 -0.498392 1.149505 5.087168 5.813118 -0.318289 -2.384408
complete -0.340018 -1.245343 -3.680452 2.555729 3.650368 -0.830804 -2.500867 -0.867911 2.262913 -2.510959 -4.066118 -0.479550 -1.205096 -1.832160 -1.812854 -4.183114 -3.347595 2.457194 -6.963510 5.220889
Officers -1.280548 -1.534151 -2.141564 -2.217736 1.218681 -0.978840 5.392334 -5.033455 -7.214666 7.645370 -0.052348 8.013930 0.014170 -5.135792 -1.378411 0.047976 7.477633 -1.032811 0.614923 5.222197
Private 0.013275 6.928164 -4.227615 -6.175826 3.000108 -8.082301 -3.012996 0.382295 3.033124 5.245958 2.388506 7.284782 1.467602 0.890885 -9.920127 4.347952 2.190053 -0.121272 12.464308 2.239335
WITH -0.979776 5.820475 -1.849501 2.786842 -8.213827 3.716110 -3.622725 -3.051119 9.048589 -1.528134 4.309894 -6.131642 1.769477 0.293208 -7.052016 3.354082 4.215247 -0.105526 7.889312 4.586119
06/04/2016 -2.010309 -2.787799 -1.034227 0.417674 -0.832722 -4.751513 0.268915 -4.293240 4.931868 -0.523244 0.908378 -4.613509 -2.290144 -5.763564 2.973460 1.157748 0.125223 -0.818827 3.600119 2.483747
change 0.399958 0.420600 1.972563 2.032962 -2.182182 3.778079 0.847715 -0.012160 -1.390737 -0.813814 4.298750 1.744243 -0.806318 -2.459400 1.470718 3.333702 0.662752 1.147732 -4.661379 -0.086834
25% -4.255870 -4.218239 6.531772 22.027382 1.511065 -5.378184 -0.784085 1.347502 14.859820 -11.095160 6.215208 -0.891109 9.930719 -2.131602 -0.975347 11.286784 2.839627 5.373162 -5.366431 -5.870804
SIC 2.057349 6.081104 -0.940178 -1.080323 0.057016 -6.034699 3.463247 -8.400887 0.578845 1.572940 5.346170 -6.145929 0.956372 -5.422460 5.996208 4.347319 3.234669 0.609099 -0.846009 3.649611
Nominal -0.946379 -2.799098 -0.511207 -3.308594 -3.076166 -3.533731 3.021163 -0.775831 -1.394859 -0.497260 -2.241407 2.804057 -1.851470 -4.694263 -3.817141 4.188951 5.528895 5.900177 3.118754 5.952928
& 2.102381 2.285896 4.400929 1.477061 -2.347570 -0.312763 -2.458760 -3.614939 -0.231165 7.161276 -2.086485 0.669807 -1.876542 -3.317235 0.972849 -1.898237 0.851619 1.363878 11.463126 3.254861
MR -0.852180 3.471725 -5.117789 -2.120927 -3.421219 -8.435331 6.534475 1.264068 0.290404 -2.970530 5.517995 0.205717 -7.353261 -7.495350 -0.055764 -2.589958 0.788142 -4.819792 3.756524 4.389750
DIVIDENDS -3.096638 0.720985 3.326159 4.599826 -6.308575 1.627811 0.954538 -5.677292 0.271272 -0.788336 -1.256609 -2.570709 8.167518 -3.834406 -7.538182 0.768964 -0.678712 -0.596426 -3.031234 9.777521
use -3.509108 -0.606419 -1.198654 -2.204574 -1.110007 -0.303932 -2.434807 -3.557877 0.173923 -0.933956 0.578441 -3.644591 -2.552715 -4.709632 3.755122 -0.834988 1.516041 0.110935 -5.708508 7.339124
annual 3.015660 0.711650 -0.558128 -2.007981 -4.004779 -7.970736 -1.765306 0.034809 -3.653263 1.962772 -4.336447 0.359664 -4.431338 1.507457 -1.331298 -3.417671 1.098655 5.204037 2.433729 6.576823
section 2.289692 -0.371161 1.408411 -0.218007 -0.792924 -4.062716 -4.321630 1.765794 -2.097902 -1.358081 -0.053013 1.069756 2.651082 1.043090 -4.008152 -3.950179 -0.488106 3.743554 -0.013287 -0.256737
/ 2.279288 4.786017 5.667270 2.066566 -8.357569 -3.208220 -2.729141 4.600206 2.291466 -3.039395 -2.720510 -5.002675 -2.487767 2.631882 5.730229 1.672485 -3.368544 -0.692638 2.420659 6.017491
transferred 1.954663 2.076644 0.315376 -2.397316 -1.845777 -2.676637 -5.127774 1.641611 7.545280 -2.470274 5.583066 2.594316 -2.907200 2.196910 -2.331998 1.511622 -1.598260 3.524091 -2.971119 -1.606667
d -1.269743 6.672290 4.844950 2.652738 -0.884121 -2.726723 3.103611 3.588915 3.338242 -6.248485 0.344228 -5.779467 0.673448 3.575596 0.021328 1.721354 3.441220 -2.485293 -0.197905 -2.494143
limited 0.242808 3.596416 -0.274532 -5.786550 0.583226 -6.830316 -2.238941 7.261193 6.721560 1.720488 6.561890 10.308117 -3.377662 0.949283 -8.956593 1.551966 1.293104 1.376714 10.963676 1.359233
page -2.741287 0.672892 0.949572 -5.338187 1.611237 -3.571350 -1.071502 -4.769503 -0.774281 -4.035002 6.341193 -3.838392 -2.432666 3.460370 1.857022 -2.089171 4.072279 0.823334 -0.196002 1.527053
ROAD 5.229484 1.834306 1.412625 8.489770 0.300701 -2.674006 6.109076 11.054889 4.321585 -0.199376 8.862939 7.067929 -6.573154 -7.223327 -3.549368 -0.135817 2.021507 4.153625 4.883759 -1.073427
HOUSE 1.708051 -0.647942 -3.882361 -0.014087 0.807048 -3.302497 -0.340294 2.616320 0.558211 -2.173883 3.009168 1.922796 -2.202169 -1.749306 -3.610557 -5.801220 0.179166 6.122596 -1.294989 3.801953
new 0.995700 -6.702002 0.497051 8.842796 -2.552903 0.709923 5.298136 -2.570497 -0.692424 4.714787 -3.043816 8.629886 0.224903 -0.446735 -2.334991 8.326741 3.135011 -4.311320 -1.248803 -0.064211
rights -3.888372 1.137504 6.342143 -2.580767 0.349574 -0.165071 1.355919 -2.758185 0.449523 -2.996447 -2.147421 -0.797733 8.640865 2.984792 -0.274682 -0.872758 1.549741 -2.275669 -0.399880 3.794112
ENTITLED -4.064836 -1.507650 -4.567575 9.157380 -5.922919 1.817229 -1.787390 -0.762065 3.322913 -3.849923 -3.852440 -3.659547 -11.060419 -2.633015 -8.514294 1.075555 13.900104 -1.044060 -2.767184 3.960482
WINDING 6.480032 9.762268 3.252044 6.504365 -2.567361 -4.683650 -2.068010 -5.493907 0.425016 -1.809945 0.364300 4.606076 6.171562 9.078089 -7.681967 -4.928010 -0.519818 2.982131 0.483760 0.210325
Register 0.168818 1.393494 -5.409829 1.990276 -0.197539 -1.087850 1.983927 1.231339 1.257648 1.327256 -1.479645 -1.495901 1.353935 1.357725 -3.507945 -0.789944 1.959477 -2.206977 -0.168391 -0.040213
voting -3.752717 -3.029645 -0.048462 3.288603 3.408296 2.580875 6.354826 -0.442730 0.504628 0.068212 2.885180 4.816986 -6.886049 -4.395863 -2.017577 2.159250 4.417898 4.638054 0.342604 0.143616
notified 0.225349 -1.551346 -8.899856 -0.547713 -4.684480 -6.145721 -5.314674 -3.313452 7.201925 -1.075970 -5.070699 3.935449 -2.999382 4.982554 -0.786996 1.791206 -0.081199 1.549510 -3.116857 4.847701
OR 4.942317 1.851136 3.107502 5.951984 -1.496959 -3.789593 -0.612200 1.673040 0.442392 1.818987 -4.171391 -0.807482 0.257630 -5.165338 -6.119552 -6.649415 2.015005 1.002107 5.300762 2.411074
VOTING, 4.443744 -2.162342 -0.285872 2.754164 -2.492214 3.115963 3.451739 -0.275511 4.159892 -6.569923 -0.512806 3.583103 -0.683511 -2.599415 -4.066627 -0.021323 2.226954 0.376929 -1.141854 6.235612
VOTING -0.326399 -1.225992 6.571238 -0.293144 -3.480893 -1.633030 -2.947229 -2.678396 1.434874 -8.249206 2.834996 -3.810783 1.860001 11.141871 -4.106355 -5.149730 1.082970 -0.239288 2.059316 6.729268
DISTRIBUTION -3.122263 7.164062 2.820655 3.144526 -5.483885 -3.303115 -0.711277 0.740210 1.492899 -4.093361 -2.227307 -1.487537 4.896937 4.021457 -5.103837 -3.364037 -0.592841 -5.195187 -1.720738 1.856249
unpaid -0.342840 -2.569169 4.241426 3.684916 1.669559 -1.314781 -5.498092 5.464150 8.412496 -7.894083 -7.573129 1.417435 -12.426766 0.020584 -5.696422 -1.914751 -1.282506 -1.342390 0.743771 4.015162
6 0.230494 -0.960165 -0.367127 -1.834890 0.182150 1.076598 -0.393802 -2.932267 2.610846 1.439981 -1.264195 -0.498162 -1.170928 -2.161758 1.659971 0.697524 0.230156 -0.369752 3.023556 2.657891
service -3.072274 3.503573 1.157322 2.459716 1.063298 -5.899871 4.994481 -3.837987 -3.612123 0.877292 -2.525287 -3.037203 2.314699 -2.160055 4.002836 -0.684523 3.426199 -0.548639 2.910181 -0.260044
paid 6.891094 -10.750729 -3.569074 4.257815 -1.382378 -10.060410 1.474717 -4.522557 1.036230 -4.801614 2.347309 8.930960 -6.587467 2.294440 -10.552287 -0.033974 8.314551 2.310853 -6.449938 3.579420
birth 4.567886 -0.204663 3.548577 4.164230 -0.603071 -3.296358 1.401098 -0.542664 3.179382 3.070011 -3.266556 2.974312 -3.867673 -8.025029 1.415772 0.349798 -2.392649 6.383265 -3.907442 8.361744
return: 0.439315 10.838383 2.086943 2.282630 -3.739455 -4.030807 -1.172948 -12.141764 -1.435228 0.755004 4.140154 -2.765330 -1.691316 -8.782577 5.235141 8.208225 -9.159361 4.541726 -11.071079 18.500784
Situation 5.426674 7.862619 -0.811416 12.962615 1.062540 -1.635659 5.006334 -2.497760 -2.504617 2.199082 3.179590 -3.538761 -1.465981 -2.196344 -2.699151 -2.122819 -0.147651 -0.661734 -1.583702 3.190603
Office: 0.496299 4.447012 -6.045964 10.151819 6.077850 -2.133775 -2.050803 -8.947392 2.510163 10.954385 -0.009161 -2.960130 11.400350 -0.859149 -5.862109 0.282391 3.449226 0.381148 -0.935573 4.679181
activity 2.289526 -2.968159 5.787053 1.935702 0.362519 -5.073154 1.708666 -4.718096 -5.431096 -4.960531 4.833913 -1.128590 1.759036 4.006344 0.523446 -3.931948 2.533301 1.032658 -1.160553 0.367407
ACADEMY 3.342523 3.346630 1.660255 5.589733 0.519552 -1.555757 -2.744799 -9.139852 -2.811046 -1.853791 7.735892 5.708621 2.604138 6.801010 -3.526938 -0.421062 -2.358803 -4.490958 -0.880829 8.516336
each -0.686426 -5.485721 0.231542 -0.944575 -6.033924 -2.129058 -3.250059 -4.486334 5.875716 1.423763 1.854169 -0.220210 -8.397881 7.463911 -1.938696 2.708580 2.864913 1.549094 -1.437084 5.111979
an 3.100379 -2.699046 -1.035443 -0.968925 -2.107034 -1.834100 3.237636 0.084583 1.523227 -0.945465 -0.577107 2.776028 -2.460970 3.783172 1.245451 -2.346502 0.734702 0.538249 -0.222400 2.872568
Nationality 7.456378 7.194961 3.156527 3.814612 -2.514318 0.517852 4.910853 -9.771067 1.261159 3.087079 -3.308444 1.046316 0.995057 -5.840056 4.625287 4.718744 2.527377 7.156395 1.036812 5.638666
Factor. 2.464894 2.084692 3.915454 4.719879 4.488547 2.165432 2.661069 -3.583250 -3.120277 -0.350066 -8.355822 -3.346366 5.428359 -1.863499 -3.051239 -2.274540 3.765760 -3.727082 1.705781 8.757759
DIVIDEND 0.189011 0.923338 3.307631 2.696925 -5.310992 -1.968941 -4.181633 -0.457504 2.509251 3.546837 -2.965075 -5.365829 5.741209 -0.252298 1.886949 0.486656 2.451396 0.247833 1.628402 7.653527
Limited 2.121388 -1.299642 -0.251506 0.395211 4.849001 -1.248271 4.540672 2.020955 2.994228 -0.840873 -4.448318 -1.744873 -1.610899 5.153998 0.525946 -0.014267 3.978516 -5.414641 6.920438 3.460983
capital -3.464701 -3.538047 3.608494 -4.672420 1.045652 -2.631088 -1.294554 -0.386073 1.294974 -2.067731 -0.663602 -1.181003 -2.228299 2.592896 -1.229253 -1.649849 0.281996 -1.139856 1.715302 3.829194
individuals -7.195386 2.403307 -5.351156 -3.473616 3.221117 -4.993190 1.114565 3.746281 9.735993 -9.403750 -8.270989 8.154633 -1.230668 2.125544 2.939939 5.623147 1.610187 -2.615717 -5.313704 8.563556
For -1.990937 -3.446815 3.779267 3.599059 -1.387853 -2.981826 2.498391 0.278260 -1.137255 -0.942577 -4.675683 -0.239633 3.249045 -1.097972 0.689860 0.989831 -2.414332 -2.674259 1.000200 2.583410
(ef) -0.075881 2.884299 0.866841 -2.336315 -0.135526 -12.690856 -3.864435 -0.646461 -6.231173 2.595405 -3.201106 15.365432 -7.300445 0.191490 2.329898 6.767511 1.083245 -0.734853 3.187540 8.093895
codes: 3.437320 4.374921 0.151665 8.192918 -3.108832 -1.347104 1.671145 -6.227412 1.541131 2.159691 -1.576687 -0.948516 -1.242447 -2.219436 -2.915661 1.375153 -7.565410 2.721228 -0.563311 7.677342
Principal 0.589072 1.249216 -3.912660 2.030251 1.044568 -0.839309 -2.418850 -1.101328 1.047143 -1.519255 -4.326787 -2.442674 -0.661855 1.138915 -0.482272 0.068926 1.285594 -0.504437 1.391169 0.247936
CAPITAL 2.824556 -6.086481 -4.735632 1.314682 -2.726728 -4.563773 1.638787 -3.972797 0.473564 -1.028521 -2.902349 3.309737 4.419978 3.489413 -1.182285 -4.017707 3.367002 0.040867 -1.832211 6.985258
significant 0.701592 -4.665351 3.653161 0.656007 2.279853 -4.197622 5.056643 1.635162 4.988079 -2.260041 3.522913 -1.658312 -5.175803 -1.704491 4.641128 -4.931548 1.583539 3.574231 3.491489 1.155890
Current 0.744245 4.224786 -2.688117 -3.701145 -2.528986 0.713171 2.894556 -2.297436 0.578357 -4.437550 -2.183372 -1.572332 0.134278 -0.925244 0.255065 0.903166 0.568640 -6.485045 0.707306 5.298779
Secretary 0.155333 5.205554 3.040238 -2.222887 -0.487412 1.066296 1.129728 -3.769969 3.590616 -0.562836 -1.698442 -0.055268 0.463572 3.537144 3.664652 3.863595 0.188630 -2.839185 -1.847493 -2.168144
LONDON 0.995103 -0.015279 0.015188 3.597783 -0.558310 -0.822913 -1.200438 0.477495 0.517792 3.245219 -1.355473 4.285339 -1.034326 -4.391687 -2.974009 -1.109764 -2.570648 -0.399251 8.728144 4.671015
their -0.587325 1.623059 8.919308 -3.072959 2.276473 -3.541327 -3.114907 7.444590 0.629697 -3.991273 3.701349 -2.785371 0.988486 2.867152 -3.913820 -0.483509 3.435222 -4.986482 -0.103395 3.820617
stock -2.363864 -2.703716 4.789296 3.681000 5.491315 -3.314989 1.784712 2.804482 5.527954 1.721660 -9.499316 -3.175675 -5.956627 -0.713769 -2.969454 1.262796 -4.101334 0.612974 1.235736 7.929041
DIRECTOR -0.635181 -1.722714 -0.262753 4.401739 -0.247406 -1.674884 2.597428 -6.964354 3.009263 1.900368 0.652138 1.105536 2.905016 1.878563 1.201757 3.203280 -0.776882 0.764976 -1.163340 -3.483840
Occupation 4.862524 0.651242 1.347425 -2.261337 -2.624007 -7.465664 6.936462 -0.980536 -0.493226 2.270875 4.299702 3.440976 -2.342937 -12.711565 3.303945 2.173195 5.884626 8.996305 5.754069 3.789385
exercise, -5.821811 0.674108 -3.379397 2.453320 -3.235281 -1.737796 2.593396 6.566904 9.697913 -4.173058 1.403883 -1.975518 -3.029652 -7.781695 -1.752532 0.115304 -1.217327 1.061243 -3.344396 5.734559
Act 0.768881 2.725729 -0.239131 4.417436 5.063046 1.810557 -0.237418 3.198577 -5.267955 -0.298348 4.511112 1.920289 -4.632984 4.284590 -4.211116 -0.663711 -1.430128 11.075485 0.740524 4.594676
box 0.805735 -1.701960 -1.914143 -0.375569 1.342519 -8.543146 3.077610 -3.294926 -1.609894 -5.056853 -1.204884 0.585240 -8.889545 -0.440584 4.530963 0.933242 1.844258 3.654313 -3.586841 3.855156
director 0.839326 3.974691 0.741333 -0.836916 -3.282351 -2.128607 -3.143594 2.644833 3.308542 -0.293156 -2.163679 -3.391639 0.216160 -0.333875 1.958707 -0.143138 1.154446 -2.254107 -2.129534 2.571190
10 0.456504 -0.108023 1.026836 -0.422627 0.097543 0.942118 -2.181288 -1.293774 2.287560 0.552970 0.790866 -0.091111 -0.926928 -3.022568 0.431655 -0.824901 -1.828845 0.436562 1.186586 2.457546
Share 6.379456 1.244761 2.304455 -1.243011 -4.266111 -3.468094 3.695094 -6.984313 -0.500141 -7.112586 2.288651 2.386005 7.136836 1.955296 -3.587871 -0.790896 3.377167 1.072076 -2.437802 2.734971
under -0.010925 4.822358 -2.175245 -0.381347 -0.565195 -0.960467 0.736316 -2.050165 -2.042247 6.185197 5.084687 0.348382 -3.242318 -6.233711 1.780392 3.775970 7.138359 10.154579 4.384518 1.072578
COMPANIES -0.150226 -0.213886 -4.511343 1.086725 3.561740 1.661951 -2.684529 -0.778428 -1.029537 -1.164621 0.977346 2.589336 -0.401206 2.211282 -2.834541 -1.979334 -0.004544 5.952519 4.007337 3.388171
Part 2.725272 3.555911 4.716973 -0.431753 -1.004738 -2.320017 2.725978 3.265493 -1.717290 -5.070846 2.358386 2.332355 -4.424517 3.607645 2.897166 -0.952300 -0.994987 3.766849 -0.219009 -0.714715
2: 2.418112 -2.020865 -1.827658 1.339382 -1.472972 0.326126 -3.071960 0.965376 2.479928 1.402648 -2.448947 0.609593 2.135571 -1.744647 -2.692490 1.263841 -2.477246 -2.879153 2.972498 4.162223
STREET 0.463334 1.937345 -3.387378 14.083319 1.220926 -3.003385 6.052096 7.748140 7.314531 -0.088054 1.078327 7.486507 -4.129340 -4.864335 -10.807233 -3.718621 -4.067968 7.342360 6.163130 -2.175679
do -0.411708 4.011883 2.587891 3.663539 -1.680797 2.327743 -1.332999 2.066797 4.704502 -2.160524 -1.478896 -5.470031 0.113941 -0.848932 1.234761 0.681618 -1.417705 4.112574 -4.303577 1.480730
last -3.425804 -3.044313 1.646264 -0.611485 1.941318 -5.042361 -1.770148 1.543679 -0.195087 2.724303 3.700933 -0.368917 -0.003693 -2.784711 -2.058025 -4.760379 -0.709463 0.760733 0.574581 3.012388
statement. 1.414469 1.680497 4.699419 -3.599916 -3.043914 -2.470179 -1.697760 -8.060054 0.287405 2.474148 2.709114 2.991177 -0.223564 4.673295 1.523765 2.994469 3.091031 -1.869111 -2.114775 -1.608957
RESPECT -5.920030 -0.181912 2.929450 5.560873 -5.433441 3.144268 -1.562924 -5.398828 -0.085694 8.652157 5.293375 10.308298 -1.023121 -0.492660 -2.221344 -4.660607 1.770816 -0.530648 6.208640 10.240915
Amended 2.034370 -0.303311 -2.763963 -3.085096 -0.569235 -4.971237 5.651621 0.486915 -1.242401 -5.787306 -5.489705 -3.070960 -1.753898 -1.020072 -2.014215 -2.915288 1.857823 1.836980 5.507322 6.456741
1000 0.153710 -1.408016 2.926486 -0.815079 1.855406 -0.502297 -0.752011 -3.954668 -0.627567 -2.912438 1.148394 1.090172 0.858116 -1.242195 -2.418397 -0.260244 0.321186 -3.851936 1.849783 4.559391
(if -0.673881 0.871822 -2.815977 -2.177624 -2.755150 0.660529 -0.757596 -1.667681 3.405580 -2.721396 -1.518007 -3.010146 -1.783567 1.226360 2.172531 4.340899 0.924298 5.233582 1.052942 4.847539
who -3.402559 1.246045 -3.001139 1.987244 -5.404016 -1.631914 7.554347 2.531587 0.783081 -0.217317 -1.459586 -3.445167 -0.694523 -7.787543 0.342927 0.933401 7.104500 -1.926707 4.262852 -1.050623
1. -2.319194 0.787395 -3.145986 -5.567123 -3.193738 -7.439425 -6.074735 0.135764 4.364038 -4.180041 1.237566 -0.365513 -4.966943 2.021974 -3.183145 0.645564 -1.426096 -4.781343 -1.009099 3.698420
below. 2.938911 5.942926 4.861428 -1.896698 -4.710555 -1.967539 -1.357335 1.885080 0.439868 -1.952413 -1.097178 0.145937 2.113748 -2.375493 3.033778 0.899580 0.067743 1.198450 1.643967 0.093519
DX 3.996730 6.259162 6.399187 5.374390 6.603347 -10.426356 0.247263 0.468444 0.174961 3.156941 -2.305760 -4.869974 0.523245 -0.893159 2.596855 0.134236 -1.252800 6.814991 2.733067 3.936064
Shareholder 0.243514 -0.037838 -0.168938 -5.205599 -0.013016 -5.263175 8.568811 -5.655630 -0.660718 -3.240100 -1.087014 6.134489 1.889015 2.671760 2.769192 1.811508 2.684440 1.676375 1.814415 0.215463
HAS -0.824756 5.643003 -0.683560 4.123920 -2.765700 2.476832 -4.381002 -1.490063 6.151334 -1.486633 1.954240 -0.220698 -0.664215 6.199830 -5.584058 2.797946 3.886035 -4.364727 5.468348 1.266234
HAVE -4.801244 5.579483 -3.848598 2.402762 -5.567698 -0.874533 -4.842583 -0.611313 5.286676 -5.694849 4.935942 -7.312567 0.301402 0.293908 -8.870133 -0.232528 6.223596 -1.303780 2.678806 1.643848
Ordinary 2.291409 1.727066 -2.299083 -0.877663 -3.398949 -1.426829 -1.203909 -0.046167 3.544124 -1.858229 -3.807081 0.293425 -3.229706 -2.002987 -3.748870 1.315402 0.294078 0.304076 -0.055106 6.014243
company's -2.316942 0.215589 4.131181 -0.232384 -1.729910 1.013705 -3.002109 -0.915323 -5.991091 0.211491 2.208697 3.993129 -0.028147 0.251155 -1.123778 5.408066 2.068507 -4.379834 -2.419287 2.877334
ths -2.310450 1.134237 6.336916 1.794611 -1.444269 -2.856498 -4.820952 -2.640906 2.031088 -6.789634 1.344694 3.539682 0.582902 8.549567 6.319518 0.741694 4.887821 -1.745245 3.049409 0.004040
Particulars 3.532452 -3.418333 3.175656 1.983065 -4.567013 -0.222384 6.146990 -4.547865 -0.758988 4.528985 -3.464724 5.329193 2.452674 1.558317 -3.089554 4.445436 4.652960 2.586212 -0.045661 5.022950
guidance 1.824415 -6.791427 -1.232795 4.175708 -5.878908 -4.688622 1.900097 -0.132334 -3.940917 -0.944180 5.716022 1.863247 0.243820 9.400098 -3.069161 -5.666999 1.997079 -1.190011 1.253370 3.469816
directors 1.342922 -2.000002 0.624184 -3.384258 -0.803710 -1.363206 2.339720 -0.910912 0.098600 0.659794 -0.157057 0.810342 4.030513 2.477156 -0.988013 -1.339942 0.690141 -0.588356 -0.264780 5.632681
over -2.295774 -2.639277 -1.460988 -3.380085 0.554173 -3.023968 5.629613 -1.631786 1.077539 1.919573 0.563570 1.290129 0.597640 -2.516358 -0.704909 0.063300 2.569897 2.626479 4.158020 3.037072
activities 2.360909 1.254630 4.662529 0.810468 4.574585 -1.431862 5.557813 -6.144197 -3.417248 -1.334770 0.238630 -1.757442 -2.083986 2.573611 1.910612 -0.689170 5.049083 -0.375702 0.997319 -2.110710
ARE -2.356219 -0.134738 -0.658148 3.631644 -5.603075 -0.638767 -1.446758 -7.013156 -1.186723 -3.512951 -0.156663 -4.816623 5.827008 2.708253 -7.649459 -0.147955 4.829871 4.339590 1.095251 5.576983
CHFPOIO -1.921070 0.573767 7.744407 -1.718334 4.146095 -3.390798 1.444753 1.854113 1.558808 -0.410825 1.377028 -2.823767 -5.755137 3.816096 3.573593 3.060119 -1.921410 -1.659707 3.939782 1.855124
FOR 7.300249 -4.897894 -4.224225 8.038629 0.502444 -3.245198 -3.816784 0.561687 4.894513 2.978876 -4.756155 2.190483 -1.156265 -0.855569 -8.664449 4.908036 0.052048 -3.251086 3.378617 7.544082
name -0.022372 1.196497 0.976918 -0.345460 1.200213 -1.921881 0.633087 3.647394 -1.984165 -1.201588 -2.383202 -2.103011 -2.210148 0.644073 -0.496244 -1.110017 -1.699782 -2.241624 0.507934 2.598275
there 0.122321 1.596974 -4.033884 0.616338 -0.207890 -5.669314 -1.865731 -0.475304 5.594383 -0.794071 -1.466459 -3.979152 -2.378561 3.630556 1.084557 -3.146702 4.982701 -1.629665 -5.236541 2.898524
right -10.012784 0.375983 -5.312486 4.716955 2.689070 -1.723150 5.673416 7.138666 5.067071 -4.781002 -0.745388 8.191414 -4.555015 -4.130143 -3.984263 4.194438 -4.162217 -1.979666 -4.448570 0.462739
ORD 1.740938 6.927437 -4.181930 -0.050313 -1.414144 0.026335 -3.724232 -2.788142 4.330698 -0.389272 -1.373487 2.556271 -4.781174 1.706028 -5.833624 1.210538 -4.862595 5.214800 -1.086129 2.462275
public -3.128884 0.581485 -0.781651 -3.407756 3.366517 -1.529554 -3.131003 -0.781181 1.756218 0.309003 0.073750 4.341990 -5.952286 3.172081 -1.383089 5.633314 0.832220 1.646982 0.144617 -1.645450
actually -12.315301 -0.096358 -2.017310 8.287237 0.552933 -2.156067 2.423596 3.952231 9.789125 -3.936852 3.181748 -1.925504 -6.766658 -4.394050 1.601060 2.835568 2.815075 2.266779 0.703780 -0.544608
Order 1.986876 3.541916 0.443030 -1.751290 -0.119681 -4.776860 0.480487 -2.009708 0.909471 4.334554 -7.051387 2.767213 6.418015 0.041759 -2.449763 -1.047087 0.042507 1.668201 3.674541 7.083521
members 1.332370 -4.487179 3.343943 -0.386275 0.328227 -1.394683 2.977879 0.136934 3.812446 2.939910 -0.728245 -0.655901 -2.093619 0.118374 0.854837 -3.767342 1.195764 1.937335 0.479265 4.435724
influence -11.666002 0.450581 3.344869 4.896629 3.505263 1.007168 2.452733 -1.383468 5.324781 0.095494 0.783277 -3.967701 -0.176925 -6.513138 -2.066268 -0.298554 3.558612 3.005838 3.200865 5.309496
te -1.705229 -0.280090 -2.141582 7.404707 -0.318249 -8.473186 -3.914425 1.251803 10.151996 -5.219398 -3.062040 -5.082778 -3.670083 4.532181 1.304251 3.456596 1.306121 -9.198382 -1.148264 0.559253
ALL -1.286337 4.907412 -2.459371 4.972039 -1.715728 1.952570 -1.428389 -4.758328 -4.724965 -5.246779 -1.106668 -2.508331 -3.252974 5.126277 -7.721704 0.606615 4.919250 3.256259 6.905387 4.533221
DISTRIBUTIONS. 0.656912 2.658988 2.135606 7.236424 -3.407136 -2.293145 2.415990 -5.257637 2.221557 -2.597644 0.476901 -3.576562 4.772359 0.172412 -6.551996 -3.181134 -2.254824 -0.052685 -2.740370 1.263150
earlier -0.772776 0.892276 6.225717 11.243385 -11.105121 -2.120154 0.651232 -7.913934 0.956477 -3.103711 3.702155 7.702129 -2.772703 3.765961 -1.202138 5.199143 1.506972 2.212359 -8.733732 -6.004499
Month 3.993301 1.902687 4.772988 6.417880 -1.410256 -5.034799 1.750327 0.208982 0.903214 -0.608681 -5.063677 0.616097 -1.794122 -0.659795 0.310152 -0.431414 -3.635545 3.352571 -0.512924 2.836520
changes -0.141071 2.315565 4.051972 2.101095 -1.579924 -3.670468 -4.026020 4.208676 1.603412 -2.123730 -0.669823 -3.304325 -3.973608 4.096871 3.533982 -3.490115 -4.356646 -0.109707 -2.064425 2.912664
Information -1.847826 1.063009 2.766763 -0.634006 1.760935 -0.991295 -3.883846 -0.163680 0.788625 1.217723 -4.812612 -1.694849 -1.331488 2.815793 0.252334 2.165716 -3.272780 0.534443 -0.768228 4.491345
(If -0.659282 -3.766294 -3.273482 -1.064481 -0.082951 -2.681139 -0.212434 -1.129235 1.295554 -0.267345 -0.139557 -2.433778 -4.974595 -0.474035 1.599803 0.947767 -0.075133 2.500066 3.528852 3.701551
during -1.119638 4.866271 -0.767453 0.483810 4.121797 -7.925236 -0.445059 3.600819 -2.899575 2.217648 0.011985 -3.564589 0.331768 -1.954459 -2.900581 2.006703 1.448119 3.175684 3.522828 -2.323730
non-traded -10.187523 -1.232796 8.458939 -1.606135 -0.302901 -12.127499 1.345093 -10.895047 3.430282 4.378446 -7.636325 -0.906951 4.653552 11.249443 0.659874 0.485116 5.315826 -2.635711 3.957797 3.894439
Office 3.188225 1.177003 -5.040021 6.952355 -1.676833 -4.427539 2.816879 -1.955090 0.838452 1.044007 2.827140 -4.569480 1.467723 -0.335231 -1.263334 2.259876 2.141955 6.584771 -3.039499 -2.440481
London 1.073671 1.060504 5.630282 6.780535 2.304331 1.407118 2.589660 2.618225 7.097505 0.006991 -8.642725 4.142332 -3.078880 -2.007414 -1.282542 -0.542259 -5.815682 2.280338 -1.044818 3.958918
should -1.535130 2.623703 2.526539 -4.034680 -1.685993 0.066482 -1.662647 -1.501391 -0.944896 1.802495 0.738199 1.455303 3.603149 3.147022 5.450679 4.770805 -0.831501 1.062780 2.505454 2.955575
Day 0.131338 1.310745 1.235815 4.265014 -1.128898 -1.447798 3.067747 0.905890 1.927289 -0.872580 -1.742806 -1.048413 -1.135195 -1.472080 1.275853 2.025968 -1.681363 0.418917 -0.868931 0.567708
fee -0.827085 6.760721 2.463089 -6.180801 4.380394 -5.115316 -7.657254 -2.149325 -7.854806 2.854666 2.042195 6.090047 3.823258 -1.659768 0.055141 0.963429 6.271671 5.301448 2.179293 0.772780
send 1.676964 -1.414583 -1.416369 3.001754 -2.860177 -0.051286 0.964891 -4.666672 0.061735 -0.421442 0.655163 1.704411 -7.043570 2.138309 5.465007 -0.745024 4.114782 6.751596 -6.795680 3.371399
e -0.167877 -1.288134 0.915223 0.924503 1.464109 -1.482864 -1.845665 0.342185 -1.109930 2.219371 -0.077547 -0.659647 -1.772976 -0.699179 2.177258 1.412395 0.808787 2.125509 2.853607 1.479631
El 1.355999 -2.551511 -2.748279 -1.036482 -0.114931 1.276248 0.876308 -0.364321 3.015936 1.719979 -1.126036 2.195099 -0.516632 0.780845 -0.702816 0.115717 0.376021 2.051292 1.232654 2.186491
applicable) 1.790009 4.826227 0.616162 1.927458 -5.199142 -2.940943 -2.595436 0.007195 3.722662 -1.916447 -1.389396 -5.090051 -0.550553 1.598495 4.218414 4.923780 -1.876575 -0.484534 -1.339805 2.315876
enter 0.363734 -7.400350 -1.448949 5.637711 -1.083975 -0.860966 -2.555814 3.726612 0.084682 -2.986488 -0.350045 -0.406030 0.314551 0.779429 -3.692709 -2.366102 -1.791669 -0.901543 -5.905725 7.170373
right, -9.747985 -1.947721 0.572675 -5.563562 0.161752 -6.925400 1.873500 -0.167654 4.233345 -5.845380 1.043804 1.711642 -3.513059 0.772089 0.348337 7.718511 2.557064 -7.984435 -0.852165 -1.771058
50 -2.114727 0.125446 2.074114 1.434644 0.670055 0.058595 -2.065702 -3.916088 2.972326 1.059158 2.085075 -0.052264 -2.913008 0.996660 -0.929018 0.401052 -1.370459 -0.418981 1.598497 -1.060413
Issued -0.608788 1.371291 0.324720 -3.717541 -0.866042 -1.593889 -3.568978 -0.393516 -0.093257 -0.830161 2.829892 2.727957 4.645390 -0.467227 -2.994880 -0.930095 -0.769646 -0.362919 -3.692571 2.153434
record -1.474812 10.738722 -0.938757 -2.226533 4.481601 -8.222775 0.195359 -3.546597 0.135328 4.306036 1.498827 3.529005 -1.186821 7.072531 -2.030438 -2.244695 -3.629104 0.143310 0.095038 1.155392
Andrew 3.057636 4.955327 -2.514716 -2.043285 -10.593589 -0.904885 1.971908 -2.965999 10.413731 1.501850 -8.815418 1.630001 1.059756 -6.087554 0.319088 1.075262 0.684703 6.146923 2.281321 9.235291
next 6.669439 -2.107677 8.792104 6.197152 -12.155413 -4.738797 2.708168 -4.643150 -6.033872 6.834649 7.468011 6.565937 0.678895 3.756666 4.144906 3.289367 5.398895 12.435913 -0.663467 9.449355
notes -2.578945 -0.082490 -5.348682 -5.334806 2.795975 -4.869153 2.973768 -5.304111 0.668746 3.694241 -2.767609 8.190285 0.273819 6.839355 -0.703152 1.297600 3.681907 1.288652 -0.444750 8.078655
appropriate) 1.574463 7.556373 3.563481 1.739452 -0.217762 -2.572840 -2.834324 3.739890 2.976510 -5.097919 -3.313056 -6.119536 -3.473084 8.434230 -0.914043 0.588356 -2.245875 -0.976799 -0.765291 1.259476
Year 3.276476 0.444435 3.325416 5.750965 -0.573211 -3.908394 5.203814 -4.164777 4.643559 0.218471 -4.712666 1.706720 -0.478457 -5.813780 0.716838 1.649604 -3.668552 3.630111 -1.351150 2.635256
contact -15.250303 7.982587 2.849805 0.549315 4.267614 -5.093095 -5.718673 -3.510765 4.909179 -7.629205 0.144760 5.821239 2.673229 3.444708 7.197491 4.916101 3.694489 -3.548433 -7.441123 -1.326153
it -1.028294 3.800559 -3.083946 1.057462 -1.275869 -6.064475 -2.330062 3.166559 -2.752593 0.164683 0.028572 0.165910 -0.192292 -1.501820 -1.483742 -6.241562 1.825375 8.891341 -0.071107 2.948971
UP 2.152726 1.579045 4.005229 2.814649 -7.675129 -3.869174 -0.538312 -4.719470 6.503904 -0.212649 8.294956 -3.070466 1.401201 3.786259 -3.614583 3.618963 -0.812051 -9.154885 -3.406603 8.616609
tre -0.372871 -4.074838 6.455695 6.245808 0.284545 -6.427446 -3.226450 2.279592 7.017438 -2.260671 7.950008 0.100857 -3.477860 4.081442 0.333523 -1.302678 0.569529 -2.773064 1.074311 -2.058846
records 3.317888 -0.692391 1.445520 0.871003 -1.364254 -6.536355 1.100157 2.698477 1.130223 3.814258 2.545778 3.039019 -3.429070 3.284375 0.089635 0.753667 0.709405 -2.297025 0.374709 -1.204882
NOT -1.736059 -1.083258 5.106866 5.665574 -4.073019 -0.768430 1.942709 -3.756122 -0.005448 -5.940737 7.377685 -3.462157 2.638145 1.231128 0.265956 -4.169388 4.004213 2.911084 -2.476691 -1.399428
firm -1.267935 -0.919287 0.638825 3.740549 3.974089 -2.996368 3.541282 3.778647 7.274744 4.728601 -1.442192 1.155621 1.985201 -6.838665 0.409679 -0.907473 -1.417535 1.227723 -1.219644 2.633434
register -2.225535 0.978853 0.100342 -2.362477 4.041063 -1.780854 -0.265119 -0.101269 0.395473 -1.889530 -0.195129 -3.991688 -3.221812 -2.802594 -1.231038 0.372615 3.023286 -1.697983 -1.199376 0.257670
persons -5.879865 3.434306 4.323059 -1.558056 4.013682 2.265766 1.392455 2.678270 4.438406 -14.149598 -0.115351 -4.217813 -0.563661 -9.651487 -4.589643 8.114359 5.367191 0.245581 -11.551277 4.331161
individuals/corporate -7.977646 5.927001 -0.517779 -7.687039 -5.790624 -2.328715 -2.314131 -0.031131 7.072550 -12.046928 -1.939254 0.669156 -1.971061 -0.251988 1.510736 5.031808 1.691440 -2.110210 -4.050314 8.197618
printed -6.298281 0.554798 -2.095884 -2.131883 2.101672 -1.764546 -1.096466 -2.124119 4.649264 -10.381018 -1.463243 0.769267 8.002999 4.437453 -1.389676 0.358704 3.038235 -4.138960 -7.614753 3.847594
Tick -0.663128 7.345002 -4.484721 -2.796462 -3.435169 -7.102534 3.241152 -2.700199 5.294654 -4.300940 0.061018 -2.842895 -5.831488 -11.439391 7.491000 2.464355 8.318205 9.640555 -1.303573 3.186610
granted 2.178922 0.231439 0.278368 4.764279 -1.905456 -1.428145 4.683905 -1.303864 3.435407 8.587722 1.656811 5.563406 4.496876 6.136156 1.455470 0.477102 6.642486 6.611717 4.628952 5.387509
723B 1.087773 13.020103 -4.296378 7.065969 -1.447485 2.083801 6.389899 6.698980 -0.554001 5.231002 9.175472 2.933125 -4.174395 2.502251 -5.704077 3.408541 5.996170 4.474757 4.466606 0.523046
transfer 6.117909 0.918676 3.495335 2.836041 -1.702679 1.529501 0.452050 -8.162495 5.521101 -0.363023 -1.956773 -1.261535 0.331069 -1.231452 0.605769 0.482816 -3.678113 3.589899 -0.173088 4.722431
PARTICIPATE -2.561764 1.803728 3.093596 3.021120 -5.794766 2.955936 0.541526 -6.640878 -7.236789 -2.104709 -3.618319 2.969452 -2.659144 -2.081712 -0.486688 1.065496 3.488725 0.633489 -1.027175 6.940125
from -0.415414 3.190583 2.428767 -0.360824 -1.812192 -1.127848 -1.800093 2.011883 1.053948 -0.324986 -0.628829 1.389565 -0.795222 2.425554 4.461814 0.869710 -1.021214 1.810486 2.661537 0.697335
appropriate -2.342791 0.612246 -5.169938 -0.837903 0.075251 1.376765 3.048330 -1.552356 1.547620 2.090664 0.934864 -0.020408 -0.335353 -2.692144 0.922504 -0.612865 2.030404 2.481118 -1.262738 1.193157
other -4.102972 3.089633 2.302884 -1.873446 3.900356 1.139514 -2.220847 -0.019544 -0.565800 -4.198332 -4.193429 -0.801937 -0.505245 -3.928440 -3.315762 3.710769 4.256689 -0.145979 -2.262836 0.407956
Value 5.189329 4.493889 3.334596 -1.464179 4.798850 -7.296167 2.435776 2.862067 2.657758 1.037314 0.419047 2.621669 -4.530777 -4.208875 -7.787371 6.409105 9.888413 -1.000354 4.159441 0.010122
provide -1.934587 1.498437 2.990239 -0.904956 1.741364 0.245043 -3.980636 -0.111723 0.464806 3.154094 -1.683033 -2.748467 -0.802201 -4.900595 -0.214082 -1.298643 0.365914 -1.081940 -2.172754 2.668961
•n -0.615555 2.265798 2.411834 -2.260563 0.064534 0.146708 -0.283096 -0.160822 -2.288046 2.739729 0.127971 -1.467967 -1.985426 -1.936574 2.863767 1.966874 0.913319 2.344656 3.799079 2.342013
Other 1.504568 -3.750587 -4.890298 0.988418 3.899937 -2.484647 2.981270 -2.547181 -1.941861 1.019186 -4.361082 2.934475 -1.310683 2.378836 -4.564840 3.003216 7.467911 0.190432 4.681738 -1.396776
appoint -2.690955 1.715516 -3.503757 2.114783 -3.658403 1.618478 0.596008 -0.289186 8.297281 -4.055373 3.475831 -4.515134 1.495916 -0.701991 3.345084 3.007151 5.425693 -2.238242 -7.212062 1.135867
review -6.536350 4.870753 -0.762593 -0.133252 0.845504 -6.353681 -4.105247 6.862720 2.701596 -4.174748 -3.979575 -8.285419 -3.837085 -1.639789 -1.018437 -2.623633 4.208799 -1.605712 -0.190882 6.348904
beneficiary -0.713701 9.614934 2.732777 7.704096 4.956169 -6.488972 13.067293 -7.501541 -2.793411 10.386516 -4.470850 3.023044 3.150794 2.294893 4.726273 -5.576067 4.036177 -3.627630 6.607623 9.389337
Confidentiality -0.651565 1.222969 1.687455 4.156265 0.859712 -1.371606 8.809553 -8.446139 1.133962 6.687408 -6.043357 4.950386 4.172498 0.422315 4.831335 -3.051899 7.357411 4.049912 6.271193 6.567275
1985. 2.664217 10.157763 6.885944 4.274142 -3.027771 -0.502024 0.862282 5.816462 -1.177002 1.213357 4.459041 -1.998888 -3.694342 -0.803546 1.621120 1.585628 -0.985163 9.750669 0.753473 2.895919
YOUNG 4.407865 4.868386 -3.848026 3.956465 -8.016469 -1.127262 0.743300 0.202374 8.522725 1.396591 -3.826498 -1.761365 3.415435 -2.593295 -1.442285 4.271208 -1.905784 2.143298 -0.459629 3.785534
It -2.484484 1.006963 -2.621415 2.748008 -2.852108 -3.469197 -1.601386 0.869755 -5.188589 -1.931288 -1.947085 -1.477916 0.545941 -2.912693 -4.467228 -2.449071 0.087508 1.843663 0.231893 -0.068819
table -0.978418 -2.445911 3.803805 1.628592 -0.188687 -4.092780 -5.069634 -3.048906 -0.397231 -4.180858 4.703907 1.324590 2.902270 3.464903 -2.676936 -1.784887 -0.538059 4.256159 -3.697869 -1.932392
return, -4.318626 0.051182 5.082160 1.981778 -2.735724 -1.936626 1.455357 0.417805 -1.108860 -3.428826 1.763653 -2.214011 -2.429665 -5.285073 -0.868938 -4.562332 -1.121776 -1.825561 -2.149366 1.888657
enclosed -2.979190 3.297151 -2.051625 -2.682564 1.828812 -5.844312 -5.454640 -0.577153 -2.108775 1.788620 -4.676426 3.939080 -0.427143 -3.140537 -5.505339 0.019387 6.796380 2.937078 0.450988 1.325598
exercises, -4.257963 2.534761 -0.766356 3.406022 -3.472272 0.125465 2.613142 7.344037 10.640189 -3.521937 0.827649 -3.857238 -2.992281 -7.403257 0.746237 2.710985 0.545083 2.270072 -0.040384 4.762635
Ill 0.238918 3.885874 6.874634 -0.424197 1.578259 -0.359769 -1.180677 -4.487136 -2.920189 0.104284 -1.632193 6.197041 -2.202997 0.989197 1.639547 0.454300 0.817423 -2.308746 5.562760 4.568547
PASSU -6.553632 -0.167426 -0.200294 7.303041 -0.129297 2.979349 -5.600678 -5.031829 4.367881 0.564847 -2.155244 -4.912814 -2.702637 -1.486878 -0.363733 -1.621479 5.398645 -2.785480 -0.544913 7.924175
code -0.685910 0.850986 -1.816828 1.565086 5.540474 -5.490207 2.339976 1.188356 -1.260545 -4.067212 -3.763150 -0.051724 -1.323184 2.706425 -3.513961 -0.698167 -0.145756 5.645220 -3.839519 3.166955
relevant -1.785580 0.813480 8.639698 -0.064242 -1.484051 -1.074430 -3.759350 0.694300 -2.559392 1.575565 -1.970457 -2.601196 -2.945240 -3.709718 1.234017 2.062606 0.095843 -3.681329 1.497414 2.725791
Sic 6.278159 -1.755307 3.988134 4.073947 -2.813738 -2.731405 1.728931 -8.670356 -3.689958 -5.582478 4.147703 0.213588 -1.965681 2.814273 2.107343 5.194642 1.254915 0.670989 -2.702463 4.732598
Codes: 6.030190 2.968786 1.352547 4.960060 -2.499738 -1.083995 -2.176821 -6.043232 -3.992584 -0.665683 3.545971 -3.372352 0.891039 -0.206822 0.572848 1.451862 2.256627 2.668296 0.466709 9.924717
note -2.489277 -6.811397 -0.784893 -2.411986 7.037308 -5.115802 -1.662970 -0.898211 5.372374 0.832358 -1.464674 2.472100 -2.146207 -1.643293 1.940411 -2.469471 -2.116056 1.892261 -4.394084 8.143872
MILLAR 3.610478 2.099876 -5.418807 0.804516 -6.188762 -3.950722 1.064072 1.240143 3.848004 1.048880 3.078470 -2.094678 1.049344 -2.721455 -1.542321 3.102857 -0.354309 2.745376 0.404521 2.322136
With -4.007864 1.906116 0.011810 0.730121 0.090036 -0.110477 -1.036169 0.941081 -1.136187 2.535228 -2.675491 -2.391983 2.054197 -1.226900 -0.306846 -1.204925 -0.981712 1.737296 0.589028 2.825542
B -1.874118 -2.338098 3.703055 1.388524 -2.266478 0.381354 -2.286730 -0.130045 4.595998 -2.563827 2.703674 -2.707281 -4.668492 1.292500 0.610927 1.161784 0.675187 0.919438 1.317723 -0.928151
cf -2.704531 2.050533 3.926630 1.845569 -1.377741 -3.987336 -0.410793 1.973658 4.676004 -6.525237 -2.115558 -5.027722 1.503782 1.896600 -0.352782 -2.998213 -3.237109 -4.144266 -1.512289 0.657011
total -3.125795 2.129492 3.148751 -4.391762 5.799756 -3.037308 -1.579326 0.150354 -2.650502 -3.371665 5.101290 0.277460 3.592561 -0.931778 -6.406328 -0.413289 4.101472 2.456609 -4.434530 2.571388
remove -7.300278 -3.940144 5.253481 6.549048 -4.414501 4.022280 2.437335 -2.158434 7.630922 0.064252 -2.402769 -1.357432 0.710372 -2.508871 -3.849982 2.925122 7.104148 -2.737534 -2.227997 5.073308
EQUALLY -0.335880 7.908958 2.765616 5.886774 -4.557753 0.690192 -3.313970 -4.530843 2.076585 -2.425948 -11.543056 -3.314543 -4.440831 1.401756 -2.532039 -2.752067 -1.150683 -1.965046 3.361338 5.146054
BY 1.967015 -1.510524 -7.118387 5.164043 -3.037385 -4.491851 -2.344091 -0.035919 -1.851938 3.770234 -2.138067 -0.949742 0.850734 0.904739 -2.881035 4.267202 -1.254639 4.301075 -0.001654 3.999203
MRS -1.175261 1.222163 -1.408457 -2.136614 -4.514497 -5.174814 4.426585 1.800659 0.613126 -2.998482 3.490956 0.186131 -4.106500 -4.852981 2.742446 -5.507006 1.191131 -2.312978 3.744066 3.264279
by' -3.675237 -6.332018 -2.395386 5.130364 3.456046 -3.367600 0.861982 -1.801790 -1.315599 1.865861 6.045982 4.211642 -1.753357 -0.916361 0.686661 -1.288207 0.328650 2.072742 -0.129393 5.735143
Tower -1.116830 4.110133 -3.092839 3.991737 0.233644 2.670786 -2.094995 -4.749775 -0.884520 -3.105258 -3.809720 -2.682209 -5.128965 -2.820406 -1.954595 1.165177 -1.765926 7.761236 3.154889 5.208318
board -5.181508 0.603417 5.516088 2.968812 -0.364319 3.854492 8.730613 -5.550653 0.833875 4.502874 -1.625351 5.318795 2.760380 -7.572192 0.017672 3.880629 4.411505 0.179553 -0.495228 5.160706
Business 4.380973 1.432165 1.064324 -0.211245 -1.487068 -3.520257 2.468960 -2.370467 -8.137389 0.244042 2.236449 -2.674634 -4.032148 0.040845 2.311045 0.499030 6.111100 5.225143 4.157074 2.416363
02589403 -0.176413 3.168268 1.449083 0.375566 -0.700181 -4.109218 -0.003534 -2.454344 -8.531527 1.266253 1.118211 0.035926 1.222145 -2.562697 -1.799296 1.735300 -0.343253 -0.063400 3.359218 1.049646
3924806 4.950927 -0.220839 -0.829385 -2.552534 -4.457911 -5.235307 -1.627507 -8.668686 3.053212 -1.600811 0.674520 -2.824743 -1.180240 6.823807 2.835143 0.894173 -1.929508 5.518631 1.336535 6.793439
which -1.896277 -3.069407 -2.774598 3.510874 -3.056430 -1.499266 8.932243 1.576969 -0.670432 -3.435791 0.622690 1.203332 0.103596 -1.394623 -0.904685 -0.770269 4.649202 3.019396 -2.466270 1.978704
Cardiff -2.390830 8.589318 2.515095 6.276664 2.261876 0.503126 -3.324931 3.124302 3.045434 -1.370399 -4.992693 -3.374602 4.037911 0.859042 2.208595 -4.930347 -1.002475 8.817605 3.082048 4.793226
form. -1.974145 2.863913 3.740281 1.324317 3.690069 -8.677635 -0.178940 1.839103 1.400175 4.703765 -2.985772 1.436965 -2.887214 0.727976 5.819404 0.532189 -2.656767 -4.452711 -2.884014 5.789451
60 1.735505 -1.687648 4.706454 0.977776 0.145548 1.182858 -1.143237 -0.836331 0.277305 2.155359 1.677501 2.815444 -6.140355 3.284351 1.084962 1.258516 0.835950 -1.979975 4.808459 3.028973
majority -4.966900 -2.441214 6.789517 4.543189 -3.138489 0.611587 5.866986 -5.120878 2.942960 4.700677 2.703857 1.439606 5.788946 -4.920718 -1.407471 0.937232 7.668124 -2.418203 -3.644690 7.721190
JOHN -0.250879 0.948658 -0.821416 1.211395 -1.593097 -2.145672 0.285695 2.852454 3.348877 -0.351263 0.329112 -0.644093 -2.460803 -4.267671 -1.012834 -3.127301 -2.473256 3.061131 2.874683 1.688462
description: 5.125210 0.194304 -12.518394 13.305783 7.008206 -0.862896 -4.590263 -5.043417 -0.909734 5.054688 -1.738332 3.216434 2.961128 0.351867 -5.387177 -0.768482 9.768465 0.676977 10.681138 14.769957
Place 4.279511 2.136988 -2.948211 2.925036 -2.584006 -2.768517 -0.632080 -3.843597 1.505654 -1.976835 -7.722010 1.592644 -2.453661 0.476359 -1.696262 -2.280532 1.954459 6.783529 3.314145 1.990761
n -6.556835 0.170204 7.589981 1.203902 1.247474 -1.760817 -0.679472 2.939556 2.929383 -2.095209 3.843924 -0.604569 -6.157743 -5.461023 0.657838 2.080596 3.094583 2.365745 4.250729 -3.636802
OTHER 7.508924 -2.890382 -0.212854 5.975105 -1.942225 -4.266708 0.598934 -2.286269 6.638126 0.482871 -1.136428 -2.671218 7.527942 0.284606 -4.056538 -2.062433 1.680789 -1.229589 -1.890617 5.529690
ATTACHED 0.394927 0.087633 -1.293395 1.980001 -4.523245 -0.543213 -10.368827 1.546083 2.681902 -0.296617 6.790208 -2.846294 -0.629750 2.827084 -1.124766 3.300753 1.698835 3.257023 -3.545271 13.319296
business 0.849245 -2.071130 0.413634 2.826377 1.221429 -0.542357 -1.342138 -0.638020 0.339276 -2.644803 4.969061 -6.594066 -5.281051 3.741688 0.679661 0.062401 -0.986810 7.017722 -2.970901 4.406313
where -2.457905 -2.302169 -5.612783 2.823416 3.242169 -7.700798 1.942608 0.654019 -2.908635 4.216986 -8.111038 0.916744 -4.421080 -1.997701 -3.421722 -0.935918 2.250043 2.152868 5.201949 3.449347
only 1.547062 -4.142903 3.734432 -1.897931 -1.374154 -2.371560 0.728288 -1.837772 2.794721 -0.576582 2.560454 4.861440 -6.207311 3.058423 3.741817 0.766001 4.828463 4.775114 1.845969 -1.963660
Street 4.552461 0.901805 -2.949911 4.068175 4.248550 -3.986865 1.325291 2.108348 -2.896459 -0.834738 -2.338466 3.603369 -4.038082 -1.564250 -1.854092 0.272442 -0.716631 2.037854 5.041667 4.981222
288a. -0.348380 -6.243226 -7.104243 0.739590 -2.078571 -3.802678 0.162768 -3.735893 4.474998 -2.847284 5.156237 4.277387 -3.106291 -1.635983 1.793764 7.824094 2.102356 3.497255 -4.572493 3.531265
secretary 1.663701 1.338413 -0.996318 -0.278895 -4.914703 -3.408495 -0.664333 3.205742 3.767424 0.086827 -5.318666 -1.855374 -1.698475 -0.200867 1.403118 -0.426198 2.024626 -0.586979 -1.268165 5.025033
fam -0.801081 -2.979759 -1.538674 12.193312 0.456138 -1.929581 -2.672554 -0.830409 7.757606 -2.529723 5.870326 1.639158 -7.762950 0.965641 0.348450 -3.959866 8.192683 8.269249 -5.300730 -0.998578
completed -1.043065 -0.648238 3.203153 -2.225974 0.024151 -4.326593 -4.435837 0.798264 2.448045 -2.559446 -1.024690 3.574681 -0.207125 -2.592308 -3.167769 -0.355009 2.526022 5.458977 -0.837774 -1.845069
companies 0.788192 1.299332 2.013715 -3.934772 2.200355 -1.699090 -1.113419 0.948565 4.185858 1.462161 -0.749744 0.585363 1.386534 -0.323425 1.159242 0.271531 0.073917 1.048092 2.166095 -0.205880
will -2.364989 2.909703 4.899994 1.909568 -1.260409 -2.754576 -1.765112 -3.463524 2.750978 -1.368293 0.490244 2.200513 2.333837 6.334859 3.345235 0.313749 0.809005 4.612022 -1.310728 -2.602428
PAYMENTS 4.293624 0.342685 -6.942270 7.619995 -0.079720 5.162512 0.436498 -7.200920 2.846572 -0.110214 -1.506672 2.153078 -0.521893 -0.092698 -1.317546 0.590952 0.772455 3.855872 2.607904 6.602461
SERVICES -0.971526 3.673274 -1.614351 2.433808 4.345316 -1.152775 -1.092219 -5.292675 -2.301350 1.264273 1.022271 4.561162 1.172145 -3.747339 -2.225505 -6.686915 1.645809 3.554706 8.138373 4.027519
Return. 6.072828 2.844029 0.051236 -6.629272 -10.116857 -11.755670 -4.578047 -1.845150 -5.942607 -2.304622 9.231965 4.248631 -3.996033 1.884712 -1.071145 1.259383 7.732311 0.879119 -2.323862 5.350234
363s 4.972072 1.523414 3.687693 2.249330 3.368443 -8.139593 -1.070753 -2.123127 -3.772463 -1.940872 -1.142799 3.708726 -2.357159 10.007255 -4.821927 1.369693 -0.993635 -2.500709 0.481377 4.866002
At -0.424347 4.020683 -11.217440 1.303083 -1.853960 -11.818037 3.317288 -4.841796 -0.256453 0.747399 2.647287 -0.113558 -8.903841 -0.268265 -9.069174 1.790627 0.959423 5.447855 -3.946724 2.813334
British 7.895776 3.590989 -3.489109 0.084623 -3.270003 -2.535166 3.053189 -7.295177 -1.516328 -0.929209 -1.040955 1.802384 -4.581960 -7.376485 5.096255 -0.681201 7.210558 7.181610 8.442076 5.029034
return. -3.146745 1.179619 7.013134 1.069879 -1.046877 -2.499367 -0.959170 2.028543 2.578408 -2.681869 -0.825222 -2.405280 -5.064858 -5.569859 -1.382072 -3.377080 -0.201490 3.861037 -2.986957 0.455500
joint -1.708958 -2.317773 2.823359 5.577897 -3.088505 -5.284200 2.527562 -2.826760 5.316942 2.456450 -4.620333 -1.286030 -2.651337 7.588039 -4.326057 10.641213 5.802400 -3.034405 -3.915575 0.387133
registration -2.539815 0.726187 6.066928 4.752184 7.054319 1.426030 -0.348800 0.415734 5.387453 -0.471964 1.089468 -0.886022 -2.625226 -2.178482 0.392950 2.230067 -6.520009 2.633188 -6.235282 3.295782
Declaration -6.290344 9.996227 -1.682600 -5.900823 -0.621739 -3.115123 -4.450621 -1.430164 -0.087948 -5.332240 -1.323914 0.131930 3.238836 0.510115 3.666595 -4.920825 -0.238846 -3.354624 -1.571032 4.624119
(See 1.563281 -1.418038 2.810669 5.539369 -2.811941 -5.716946 4.256526 -3.073179 -6.255744 -2.444091 -4.708072 -0.129965 2.991663 -1.402601 -4.180352 -5.909512 0.194689 4.116774 7.133968 1.774200
Dog 5.813400 3.915393 -0.456727 0.523425 3.367266 1.507244 -1.831479 2.927071 2.753428 -5.631785 -1.413501 -2.530337 -2.951548 4.445034 2.091169 0.497351 -2.089638 -0.807011 3.329098 9.772139
DISTRIBUTIONS 1.966974 3.949800 6.924047 3.456827 -2.651701 -1.342995 3.748794 -2.206782 -1.189582 -4.564830 -1.024885 -4.855100 2.187461 -1.749400 -2.262551 -3.807371 0.290599 -2.430756 -1.729608 1.476693
may -3.214416 6.582344 -3.523487 -0.424277 -3.802049 -1.588810 -6.481828 -3.783513 1.527602 0.747924 -4.039495 0.948047 3.873130 0.122671 -1.573423 0.432617 -0.759363 9.229122 -0.147822 1.384597
Complete -1.243973 -3.011742 7.009773 -0.132289 0.951872 -3.510218 3.214772 -5.334334 3.077259 -7.643819 -1.609690 -1.287350 -4.900368 2.100729 2.752601 -0.836539 -2.791203 5.289910 -0.919952 1.726174
PARI -7.119924 -2.539383 -2.328425 6.977262 1.079580 0.458882 -1.719951 -1.156577 1.251467 -3.881447 -3.699537 -2.333249 -1.272418 3.029255 -6.256581 -3.232229 1.247353 0.984371 1.209796 2.987817
DAVID 0.028977 3.411165 -0.471868 2.213288 -2.569820 -1.223352 0.193828 0.892969 0.935953 2.776073 -0.171167 -1.586456 -0.268848 -4.766428 -1.352383 -0.611185 -1.722738 -0.299399 3.544243 0.656891
write -0.072939 2.400882 1.839743 -1.039096 6.537961 -0.262584 -2.024232 0.479312 -0.929792 1.325766 -2.827857 4.422091 3.832558 0.288165 -1.874002 -1.241158 4.481861 -0.015260 -1.773342 4.981390
Contact 0.080010 5.643689 3.240654 3.773987 0.615002 -4.813243 0.085328 4.880258 4.270792 -1.828814 -9.552567 -2.019924 -0.787601 2.524051 -2.502265 -0.464134 -6.138694 10.207332 -3.557698 7.064581
2589403 5.012044 -0.739818 0.149484 -2.363214 -4.009643 -5.638957 -0.341543 -8.562687 0.971056 -0.430642 0.742139 -1.571337 -2.296208 5.932830 3.972684 0.718181 -1.119167 5.983621 2.449335 7.178123
additional -3.453655 6.150010 5.688117 -0.690128 1.872964 0.234598 -2.624750 -5.923750 -3.704763 -1.556673 1.820600 0.407524 0.379965 6.620546 2.151713 2.093590 3.360070 3.711479 -2.454960 -0.179503
To -5.396837 -0.038951 0.546895 8.719729 -1.921125 -1.727207 4.863051 -1.984897 0.188379 -1.122410 -1.806361 2.173551 -0.453001 3.148824 4.339178 -2.998810 -0.954707 3.820436 -0.864712 0.621785
RANK -0.357907 -1.554153 -3.374068 1.235374 -5.740826 -1.220338 -5.197934 -0.311798 1.532702 -3.995445 -0.442279 -2.853973 -2.973900 -2.079211 -4.596205 0.235083 4.312305 -0.314840 5.830947 9.047685
SHALL -5.376439 1.321263 -0.251317 5.709879 -0.240019 -0.996186 -3.267513 -0.754662 2.678703 -1.517216 1.126178 -4.698286 -0.698444 6.848523 -5.999533 -1.990741 -1.904608 -1.755720 4.131669 2.557445
RIGHTS. 4.131665 -0.092280 1.399658 3.578238 0.354517 1.975046 -1.499702 -5.788693 3.569414 -1.613563 -1.600271 -4.245317 0.901289 -3.002395 -7.038998 -4.264840 3.106788 -3.456576 -0.030316 4.819228
MEMBER -2.483135 0.655737 -0.463415 10.218140 -0.501913 -4.563649 -5.158357 3.350244 -1.314920 -3.344216 2.624669 -0.316282 -7.595905 0.298975 -4.675038 -0.708355 1.071388 -3.242652 -0.683228 3.828521
4. -3.723779 -4.595702 0.547648 1.078197 -0.415849 0.130198 2.463703 -3.382421 -2.661440 -4.070184 -4.471132 4.083959 -4.952549 0.484382 -1.265056 1.796723 3.305065 8.025123 -5.262799 9.875222
declaration -1.198460 16.323339 5.037713 -0.411562 -5.555686 -5.617018 4.138819 7.704466 0.169770 -2.228182 -1.077227 -0.161591 -3.050731 4.730307 8.107958 -3.836028 -0.802575 -1.766528 -1.010810 10.255898
class -5.038315 -0.743624 10.489530 -2.662641 0.055119 -2.016728 -3.112988 -1.322883 6.454679 0.619053 -1.283569 -2.446547 -2.989583 -0.804324 -1.346335 0.308382 0.370791 -1.858014 0.994976 0.641780
legal -4.966866 -4.683539 -1.655240 1.711427 1.788763 1.019729 4.678835 -1.287717 1.664129 -3.568760 1.038405 -0.255866 0.582665 0.606410 -0.009466 -2.870850 3.529767 2.479962 -5.780321 6.004604
Reports 1.950709 -0.323026 -0.831735 1.771195 11.403744 -5.499499 -0.952811 -3.606296 0.217746 -3.269886 -4.722317 3.124424 2.632191 6.190441 -0.965678 3.108805 2.861330 -4.687427 12.293613 7.726661
principal -0.945249 0.818187 -3.566443 2.392540 3.502908 1.809050 -3.645931 -1.258426 1.866129 0.497091 -1.110867 -2.556839 -2.173579 -1.096753 0.560639 3.629721 -0.196616 1.491125 -1.678391 -0.028927
BE -0.057869 -1.168697 -0.653654 8.676147 -5.766476 -2.759016 -1.666513 -1.307161 3.140251 3.027254 -3.669887 -2.228439 -4.404805 1.639442 -0.499718 -2.373191 2.463140 -0.465612 2.414456 3.945568
check -6.977585 2.059977 0.901955 -2.745526 1.835210 -2.956359 -2.916558 -4.366713 -7.112791 -1.252118 1.642813 3.591650 -2.997563 0.543903 -0.512196 -1.351292 0.889845 0.965834 -8.818639 13.393682
Signature -2.774006 1.765905 -2.337183 -3.315153 2.552413 -6.432213 -5.310461 -0.164773 -0.105497 -1.638335 2.276404 0.848584 -4.938276 3.765764 -0.539677 1.018271 -1.689887 2.743975 1.548788 0.228945
LANE 1.076118 4.490735 -4.275785 7.529722 3.571956 -0.005578 2.746346 9.027286 7.421280 -1.460536 5.180274 -0.046849 -4.723576 -3.683300 -4.881463 -1.554184 -1.327407 -0.446087 7.745333 4.714710
continuation 4.222788 0.324896 6.850132 5.518529 1.290185 -0.534542 0.963080 -3.437201 -3.671483 -1.478754 -5.579008 -2.160409 -3.212204 7.612549 2.121949 3.532348 2.671882 8.276043 -2.902430 3.259617
shareholder -4.010491 -1.002305 1.215247 -0.410457 3.168061 -5.864468 2.403991 -1.271098 -0.562557 -1.458505 1.697877 -3.634594 1.502509 4.009807 -0.940053 -0.596428 1.295364 0.744866 0.961189 -1.004917
Post 1.155458 -1.786718 -4.303948 3.722392 2.579408 -3.292527 -2.025601 1.215896 5.469010 2.266203 -5.190666 4.512012 -6.452012 0.803856 1.967209 5.145533 -1.295185 4.309798 2.238717 4.361775
Version 0.080604 3.334646 5.873023 -0.433004 2.342770 -0.219615 -0.708246 -0.531158 -1.099129 -3.403860 -0.280304 -0.752150 -3.358429 0.006464 1.026773 -0.209332 -0.607982 0.260510 -0.249178 0.635323
Registrar 0.368479 -3.528109 -4.099873 4.066747 1.563809 -3.700284 3.422867 3.154005 2.142254 4.428445 2.643145 6.536272 -8.407312 0.170688 0.121819 -7.245528 -2.618863 7.872395 -2.173950 6.843691
AT 6.035662 4.493332 4.167608 9.408224 -0.897445 -1.257274 -0.963856 2.399924 2.668367 3.680971 3.402930 0.141576 4.312668 -1.580225 -5.850904 1.475496 -1.318672 1.030211 2.681363 3.483268
3: 1.638647 -2.208080 1.676358 -3.613625 -4.017538 2.062798 -6.375138 -2.017976 1.683513 -1.003804 2.183869 0.838850 2.763269 -0.309777 -0.028546 2.097652 -0.019361 2.671139 0.739517 6.961885
Description -0.687939 3.092950 -2.796907 -1.689366 2.847034 -5.828799 -0.513879 -2.846058 0.394954 -1.686800 -0.356945 -6.721737 0.367233 1.353797 -0.963071 -2.143845 -2.688261 -0.290005 4.781698 7.633625
Road 2.093487 8.089710 -3.409095 7.128786 -4.420876 -0.830215 -2.743793 1.599385 3.795969 -3.512014 -8.514854 5.743333 1.024582 -7.249251 -2.640075 -1.240476 -3.335052 5.348685 0.894159 8.109600
Oxford 7.428885 -0.277668 0.404596 2.703747 0.196212 -6.425833 -0.375404 -1.800349 6.205606 -0.326756 -6.336982 3.789093 0.505326 -1.292997 -1.643966 -2.653880 -3.987328 3.517647 1.583267 5.169724
go 1.750658 -4.278076 3.708039 1.296839 -6.153362 0.738645 0.222753 -0.825254 3.977377 -7.277733 2.022855 2.018952 -9.287094 -1.826242 4.889933 -1.289467 3.249957 4.804088 -5.536672 4.664651
AROI 1.069543 3.417082 -0.240602 -1.351398 -0.232486 -2.657194 -2.470800 1.495645 -6.423768 -3.074743 -1.082263 4.771793 -6.017521 2.184220 -0.990299 1.447767 -0.121737 2.360166 -0.378988 4.299496
0001 0.110075 -2.034343 1.343020 1.180961 -2.061703 -2.510494 1.380268 2.937193 4.956126 -3.865185 -3.278419 0.602564 -6.272236 -1.945632 -2.396139 2.316393 0.955973 0.117111 0.537013 4.860343
